
\data\
ngram 1=2872
ngram 2=7687
ngram 3=986

\1-grams:
-0.9929766	</s>
-2.429291	<UNK>	-0.5381024
-3.75151	<laughter>	-0.212842
-2.389782	<music>	-0.8468857
-99	<s>	-0.1096039
-4.052896	<unk>
-4.05254	a	-0.09251866
-3.011147	aa	-0.07001448
-3.75151	aaa	-0.110845
-4.05254	aah	-0.1389096
-4.05254	aangalie	-0.1388326
-4.05254	abda	-0.09251866
-3.575419	abdala	-0.3810785
-4.05254	abi	-0.1389096
-4.05254	abidjan	-0.1386401
-3.75151	abiria	-0.2586166
-3.75151	abraham	-0.1389866
-3.75151	abu	-0.2593099
-3.75151	abuso	-0.1389866
-4.05254	achukue	-0.1382547
-4.05254	achukuliwe	-0.1382547
-3.35357	afisa	-0.2208465
-2.938597	afrika	-0.1975687
-3.05254	afya	-0.2293857
-3.75151	agenda	-0.2587322
-4.05254	aina	-0.1389866
-4.05254	ajabu	-0.1381005
-3.45048	ajili	-0.4049466
-4.05254	akachukua	-0.1389866
-4.05254	akachukuwa	-0.1387556
-3.75151	akafanya	-0.2593099
-4.05254	akajitetea	-0.1364003
-4.05254	akaniambia	-0.1318465
-3.75151	akielezea	-0.1316508
-4.05254	akifwatilia	-0.1385245
-4.05254	akifwatiwa	-0.1201483
-4.05254	akikabiliwa	-0.1201483
-4.05254	akikutana	-0.1201483
-4.05254	akimaliza	-0.1390251
-4.05254	akiorodheshwa	-0.1351595
-4.05254	akiripoti	-0.1373285
-4.05254	akisha	-0.1390251
-4.05254	akishinda	-0.1351595
-3.75151	akitarajiwa	-0.2593099
-3.011147	akiwa	-0.1610187
-4.05254	akiwemo	-0.1372512
-4.05254	akizuiliwa	-0.1301609
-4.05254	akizungumza	-0.1201483
-4.05254	akujuze	-0.1389096
-4.05254	akuwe	-0.1389481
-3.45048	alama	-0.4049466
-3.75151	alasan	-0.2592329
-4.05254	alasane	-0.1389866
-4.05254	alaumiwe	-0.09251866
-4.05254	albino	-0.09251866
-3.75151	ale	-0.09234727
-4.05254	alex	-0.1390251
-4.05254	alexander	-0.1390251
-4.05254	alfa	-0.09251866
-3.75151	alfan	-0.2593099
-4.05254	alhasa	-0.1389866
-4.05254	alhasan	-0.1389866
-4.05254	ali	-0.1390251
-4.05254	alichanguliwa	-0.1366712
-4.05254	aliejiuzulu	-0.1201483
-4.05254	aliekamatwa	-0.1389866
-4.05254	alihusika	-0.1201483
-4.05254	alikamatwa	-0.1390251
-3.75151	alikuwa	-0.1318074
-4.05254	alimuuliza	-0.1389481
-4.05254	alinyimwa	-0.1390251
-4.05254	alioifanya	-0.09251866
-4.05254	aliona	-0.1318465
-4.05254	alipata	-0.1390251
-4.05254	alipochukua	-0.1388711
-4.05254	alipotamuka	-0.1366712
-4.05254	alisema	-0.09251866
-4.05254	alishashinda	-0.1390251
-4.05254	alitaka	-0.1390251
-3.75151	alitia	-0.2592714
-4.05254	alitutumia	-0.1385245
-4.05254	alivyo	-0.1390251
-4.05254	alivyosema	-0.1364003
-4.05254	aliyegombea	-0.1388326
-3.575419	aliyeko	-0.3997628
-4.05254	aliyetangulia	-0.1388326
-3.75151	aliyeteuliwa	-0.2404716
-4.05254	aliyoahidi	-0.1381776
-4.05254	aliyoiacha	-0.1390251
-3.575419	alonzo	-0.08242185
-4.05254	alqaeda	-0.09251866
-3.05254	ama	-0.1276002
-4.05254	amalize	-0.1388326
-2.690812	amani	-0.3189257
-4.05254	amanii	-0.1201483
-3.35357	ambacho	-0.1388711
-3.45048	ambae	-0.1315725
-3.207442	ambalo	-0.1387941
-2.521061	ambao	-0.09524868
-2.876449	ambapo	-0.1755747
-3.35357	ambavyo	-0.1826995
-2.973359	ambaye	-0.1592132
-2.590142	ambayo	-0.09970158
-3.05254	ambazo	-0.1990157
-3.75151	ambuso	-0.09247581
-4.05254	ambusu	-0.1387171
-4.05254	ame	-0.1390251
-4.05254	ameandaa	-0.1385245
-4.05254	amebaini	-0.1364003
-4.05254	amebainisha	-0.1366712
-4.05254	amechukua	-0.1388711
-3.75151	ameenda	-0.1385245
-3.75151	amefanya	-0.2569945
-4.05254	ameiomba	-0.1386016
-4.05254	amejigaba	-0.1389096
-3.75151	amejigamba	-0.2569945
-4.05254	amekiita	-0.1388326
-3.75151	amekiri	-0.212842
-4.05254	amekumbali	-0.1387556
-3.575419	amekuwa	-0.1387556
-4.05254	amelaani	-0.1388326
-4.05254	amelipongeza	-0.1388711
-4.05254	amemaliza	-0.1387556
-4.05254	amemhoji	-0.1390251
-4.05254	amemtaja	-0.1389866
-4.05254	ameonekana	-0.1387556
-4.05254	ameonyesha	-0.1389866
-4.05254	amepata	-0.1390251
-4.05254	amepongeza	-0.1387556
-4.05254	amerika	-0.1385245
-2.938597	amesema	-0.1715336
-4.05254	ameshtumu	-0.1371353
-3.575419	ametoa	-0.2151617
-4.05254	ametumbariki	-0.1371353
-4.05254	ameuchukua	-0.1386786
-4.05254	ameunga	-0.1388711
-4.05254	ameviambia	-0.1390251
-4.05254	amewahakikishia	-0.1386401
-4.05254	amewahoji	-0.1388711
-4.05254	amewasili	-0.1351595
-4.05254	ameweka	-0.1390251
-4.05254	ameweza	-0.1387171
-4.05254	amezitembelea	-0.1381005
-4.05254	amezungumuza	-0.1390251
-4.05254	amezungumza	-0.1201483
-4.05254	amri	-0.1389866
-4.05254	amubariki	-0.1301609
-4.05254	amwachie	-0.1390251
-3.45048	ana	-0.1387556
-4.05254	anaamua	-0.1388711
-4.05254	anaangazia	-0.09251866
-4.05254	anaapishwa	-0.1386016
-3.75151	anaelekea	-0.1382162
-4.05254	anaelezea	-0.1318465
-4.05254	anaenda	-0.1389866
-4.05254	anafwatiwa	-0.1201483
-3.75151	anaitwa	-0.1389866
-4.05254	anajaribu	-0.1390251
-4.05254	anakuja	-0.1390251
-4.05254	anakupasha	-0.1382162
-4.05254	anakuwa	-0.1382162
-4.05254	anakwambia	-0.1381776
-4.05254	analiongoza	-0.1382162
-4.05254	anamoishi	-0.1390251
-3.575419	anaona	-0.1312984
-4.05254	anaondoka	-0.1386786
-4.05254	anaongea	-0.1377533
-4.05254	anaongoza	-0.1386401
-3.575419	anapaswa	-0.2152772
-3.75151	anapenda	-0.1381005
-4.05254	anapoambiwa	-0.1364003
-3.207442	anasema	-0.1190696
-4.05254	anasemeje	-0.1387941
-4.05254	anasika	-0.1387556
-3.35357	anastahili	-0.09174696
-3.75151	anataka	-0.138486
-4.05254	anatakikana	-0.1390251
-3.45048	anatarajiwa	-0.1376375
-4.05254	anategemea	-0.1387941
-4.05254	anatembea	-0.1371353
-4.05254	anatoa	-0.1390251
-4.05254	anauomba	-0.1386786
-4.05254	anavyo	-0.1390251
-3.75151	anavyoelezea	-0.138486
-4.05254	anavyoenda	-0.09251866
-4.05254	anaweza	-0.1390251
-4.05254	anayeingia	-0.1388326
-4.05254	anayeruhusiwa	-0.1390251
-4.05254	anayetawala	-0.1387556
-4.05254	anayoifanya	-0.1390251
-3.75151	and	-0.2593099
-4.05254	andaliwa	-0.1389866
-3.45048	andrew	-0.1948405
-4.05254	angalao	-0.1387556
-4.05254	apache	-0.09251866
-4.05254	apatikana	-0.1201483
-3.75151	apige	-0.135664
-4.05254	aprili	-0.1385245
-4.05254	arafa	-0.09251866
-4.05254	area	-0.1390251
-3.274389	arobaini	-0.4719981
-4.05254	arsenal	-0.1381776
-4.05254	arudi	-0.1389866
-4.05254	arusha	-0.1389481
-4.05254	asalama	-0.1388326
-3.575419	asante	-0.167423
-3.75151	ashirikishe	-0.09187566
-3.45048	asia	-0.2717945
-4.05254	asile	-0.1385245
-4.05254	asili	-0.1219132
-3.575419	asilimia	-0.1213925
-4.05254	asipige	-0.1390251
-3.75151	askari	-0.1277188
-3.575419	aslimia	-0.1375216
-3.207442	asubuhi	-0.2472573
-3.75151	asungwe	-0.2593099
-4.05254	atachaguliwa	-0.1366712
-4.05254	atachanguliwa	-0.1366712
-4.05254	atachukuliwa	-0.1382547
-4.05254	ataenda	-0.1383318
-3.75151	atafanya	-0.1384089
-4.05254	atahudhuria	-0.1386401
-3.75151	ataibuka	-0.1201081
-4.05254	atakaye	-0.09251866
-3.45048	atakuwa	-0.1387941
-4.05254	atapata	-0.1389096
-4.05254	atatangazwa	-0.09251866
-4.05254	atatoa	-0.1389481
-4.05254	athari	-0.09251866
-4.05254	atutimizie	-0.1372899
-2.973359	au	-0.1266243
-4.05254	authentication	-0.1219132
-4.05254	awakilishe	-0.1389481
-3.274389	awali	-0.1473219
-3.75151	awamu	-0.1206705
-3.75151	aweze	-0.138486
-4.05254	ayub	-0.1390251
-4.05254	azigatie	-0.1377533
-4.05254	azingatie	-0.1385631
-3.75151	azma	-0.1203492
-4.05254	azungumza	-0.1386401
-2.822091	baada	-1.05037
-2.973359	baadhi	-1.197759
-4.05254	badala	-0.1219132
-3.45048	bado	-0.1382547
-3.35357	bagbo	-0.4591989
-3.207442	baghdad	-0.1777297
-4.05254	bahari	-0.1363228
-3.75151	bahati	-0.1369806
-4.05254	baiskeli	-0.1386016
-4.05254	baisketi	-0.1386016
-4.05254	balanced	-0.1390251
-3.75151	bali	-0.2521698
-4.05254	balozi	-0.1277978
-3.45048	bara	-0.4193562
-4.05254	barabara	-0.1388326
-2.938597	barack	-1.145126
-3.35357	barak	-0.5047421
-3.05254	baraza	-1.038652
-4.05254	baridi	-0.1377147
-4.05254	baroni	-0.1384089
-4.05254	barua	-0.1390251
-3.75151	baruan	-0.07995976
-3.14945	basi	-0.1256202
-4.05254	baskeli	-0.1387941
-4.05254	bayana	-0.1387556
-4.05254	beautician	-0.1390251
-3.45048	bega	-0.1367606
-4.05254	benjamin	-0.1390251
-4.05254	benki	-0.1375216
-4.05254	berdi	-0.09251866
-3.35357	bi	-0.1387941
-4.05254	biang	-0.1390251
-4.05254	biashara	-0.1377533
-4.05254	bidhaa	-0.1201483
-4.05254	bidii	-0.1201483
-3.45048	bila	-0.1949175
-4.05254	binaadam	-0.1201483
-3.575419	binadamu	-0.07894448
-4.05254	blackburn	-0.1390251
-4.05254	bongo	-0.09251866
-4.05254	boo	-0.1389866
-3.35357	bora	-0.1710625
-4.05254	bosnia	-0.138486
-3.75151	bp	-0.1387556
-3.75151	brazil	-0.1389866
-3.575419	brazzaville	-0.3534488
-3.75151	bujumbura	-0.09247581
-4.05254	bukavu	-0.1390251
-3.75151	bukuku	-0.07141072
-4.05254	bull	-0.09251866
-3.35357	bunge	-0.210648
-3.75151	bungeni	-0.0916182
-4.05254	bunya	-0.1390251
-4.05254	burudani	-0.1390251
-3.45048	burundi	-0.09226157
-4.05254	busara	-0.1390251
-4.05254	bush	-0.1387171
-4.05254	but	-0.1389866
-3.05254	bwana	-0.2049961
-4.05254	cairo	-0.09251866
-3.14945	cameron	-0.1781219
-4.05254	camp	-0.1390251
-4.05254	carl	-0.1390251
-3.575419	castro	-0.09037165
-4.05254	cayman	-0.1390251
-3.75151	ccm	-0.1388326
-2.534026	cha	-0.1834657
-3.75151	chache	-0.1387556
-4.05254	chadema	-0.09251866
-4.05254	chaguliwa	-0.1201483
-4.05254	chaguzi	-0.1389866
-4.05254	chako	-0.1390251
-3.14945	chakula	-0.09548911
-3.098298	chama	-0.7907727
-3.35357	changamoto	-0.09230443
-4.05254	chanzo	-0.1377919
-3.75151	chembe	-0.1357803
-4.05254	chevez	-0.1390251
-3.35357	china	-0.1648096
-3.75151	chini	-0.07338479
-4.05254	chochote	-0.09251866
-3.575419	chombo	-0.1387556
-4.05254	chronomita	-0.1387556
-3.75151	chuo	-0.2593099
-3.75151	city	-0.212842
-4.05254	clinton	-0.09251866
-4.05254	close	-0.1390251
-3.575419	coast	-0.1687534
-3.75151	comoro	-0.09217584
-3.35357	congo	-0.2760167
-4.05254	conta	-0.1390251
-4.05254	coptic	-0.1366712
-3.14945	cote	-0.4201775
-4.05254	cricket	-0.1390251
-4.05254	cuba	-0.09251866
-4.05254	cum	-0.09251866
-3.274389	d??voire	-0.2321465
-3.575419	dada	-0.1389096
-4.05254	daftari	-0.1363228
-3.207442	dakika	-0.2751625
-3.75151	damu	-0.2590019
-2.973359	dar	-1.113481
-3.05254	david	-0.4130803
-4.05254	dawa	-0.1358579
-3.75151	de	-0.2593099
-3.274389	deketela	-0.1678955
-4.05254	delhi	-0.1377533
-4.05254	delian	-0.1389866
-4.05254	democratic	-0.1390251
-4.05254	demokrasia	-0.1201483
-4.05254	denien	-0.1389866
-3.575419	dennis	-0.2153542
-3.575419	dereva	-0.1262152
-4.05254	desemba	-0.1379848
-4.05254	desilva	-0.1390251
-3.75151	dhabi	-0.1387941
-4.05254	dhabiti	-0.09251866
-3.75151	dhahma	-0.258578
-4.05254	dhaniwa	-0.1366712
-4.05254	dharuba	-0.1318465
-4.05254	dhati	-0.1390251
-3.14945	dhidi	-0.9764748
-3.75151	dialo	-0.212842
-4.05254	diet	-0.1382547
-3.274389	dini	-0.1276278
-3.575419	diplomasia	-0.20582
-4.05254	dirma	-0.1390251
-4.05254	diude	-0.1390251
-4.05254	dogo	-0.1388711
-4.05254	dokta	-0.1390251
-4.05254	dominata	-0.1390251
-4.05254	doo	-0.1364003
-4.05254	dosari	-0.1386786
-4.05254	dotcom	-0.1389866
-3.75151	draman	-0.1389481
-4.05254	dubai	-0.09251866
-4.05254	dumu	-0.1301609
-2.973359	dunia	-0.1473667
-3.207442	duniani	-0.2298135
-3.14945	duru	-0.2249116
-3.575419	ebi	-0.3998398
-4.05254	ecowas	-0.09251866
-3.274389	edwin	-0.3993776
-3.207442	ee	-0.102031
-3.75151	eeh	-0.07141072
-4.05254	either	-0.1390251
-2.822091	elfu	-0.8872429
-4.05254	eliezar	-0.1390251
-3.35357	elimu	-0.1579643
-4.05254	elize	-0.1201483
-4.05254	emanuel	-0.1390251
-4.05254	enamuel	-0.1390251
-3.75151	endelevu	-0.212842
-4.05254	enemies	-0.09251866
-3.45048	eneo	-0.1381776
-4.05254	enona	-0.1390251
-3.75151	enzi	-0.09209009
-3.75151	equality	-0.2593099
-2.973359	es	-0.885493
-4.05254	eu	-0.1389096
-4.05254	everton	-0.1390251
-3.75151	familia	-0.1387171
-4.05254	fanya	-0.1388711
-4.05254	fanyika	-0.1389866
-4.05254	faraja	-0.1301609
-4.05254	fauba	-0.1389866
-4.05254	faulting	-0.1374444
-4.05254	februari	-0.1385245
-3.575419	fedha	-0.2153157
-4.05254	ferari	-0.1201483
-4.05254	ferguson	-0.09251866
-3.575419	fernado	-0.3998783
-4.05254	ffu	-0.1389481
-4.05254	fidel	-0.1389481
-4.05254	formula	-0.1390251
-3.011147	france	-1.180033
-4.05254	french	-0.1374444
-4.05254	frg	-0.1390251
-4.05254	friends	-0.1390251
-3.45048	fulani	-0.1854612
-3.575419	furaha	-0.2118761
-3.45048	fursa	-0.1163535
-3.75151	g20	-0.09183276
-4.05254	gabon	-0.1390251
-3.75151	gabriel	-0.1389866
-3.274389	gani	-0.1177175
-4.05254	gavana	-0.1277978
-3.35357	gazeti	-0.5030031
-4.05254	generali	-0.1390251
-4.05254	george	-0.1390251
-4.05254	gereza	-0.1390251
-4.05254	gerezani	-0.1384089
-3.75151	gharama	-0.2561812
-4.05254	gitonga	-0.1377533
-4.05254	glass	-0.1219132
-4.05254	grand	-0.1390251
-4.05254	guantanamo	-0.09251866
-4.05254	guba	-0.1375602
-3.274389	guinea	-0.1836901
-4.05254	gundulika	-0.1385245
-3.75151	guniea	-0.1388711
-4.05254	gurudumu	-0.1363228
-3.75151	gwema	-0.212842
-2.710117	habari	-0.13874
-3.75151	habie	-0.2593099
-3.575419	hadi	-0.2115268
-4.05254	haha	-0.09251866
-3.575419	haidal	-0.0916182
-3.575419	haiguzi	-0.3996858
-4.05254	haijatolewa	-0.1385245
-4.05254	haikuchuka	-0.1390251
-4.05254	haikuji-engage	-0.137869
-4.05254	haikuwa	-0.1201483
-4.05254	haimaanishi	-0.1366712
-3.45048	haina	-0.1943012
-3.75151	haitafua	-0.2593099
-4.05254	haitakuwa	-0.1388711
-3.575419	haiti	-0.1688391
-3.35357	haja	-0.1099818
-4.05254	hajakata	-0.1390251
-3.274389	haki	-0.1648363
-4.05254	hakieleweki	-0.1201483
-4.05254	hakihitajiki	-0.09251866
-4.05254	hakipati	-0.1387941
-4.05254	hakizimana	-0.1372899
-3.274389	hakuna	-0.136826
-3.75151	hakuridhishwa	-0.2404716
-4.05254	hakusema	-0.1387556
-4.05254	hakutakuwa	-0.1201483
-3.14945	halafu	-0.1375602
-3.75151	halaiki	-0.2579994
-2.822091	hali	-0.2602507
-4.05254	halipo	-0.09251866
-4.05254	halisi	-0.1219132
-4.05254	hamington	-0.09251866
-4.05254	hamsini	-0.1201483
-4.05254	hanaumbaguzi	-0.09251866
-4.05254	handaki	-0.09251866
-3.05254	hao	-0.1668409
-2.773787	hapa	-0.1552756
-4.05254	hapana	-0.1390251
-2.797267	hapo	-0.1656974
-3.35357	haraka	-0.1354882
-3.14945	hasa	-0.1167409
-4.05254	hasan	-0.1390251
-4.05254	hasili	-0.1383318
-4.05254	hass	-0.1390251
-4.05254	haswa	-0.1390251
-2.690812	hata	-0.2193998
-4.05254	hatihati	-0.09251866
-4.05254	hatimaye	-0.09251866
-2.730321	hatua	-0.3067125
-4.05254	hatujapata	-0.1390251
-4.05254	hatujawachana	-0.1201483
-4.05254	haujapata	-0.1384475
-4.05254	haujegwi	-0.1301609
-4.05254	hauko	-0.1386786
-4.05254	haukupiga	-0.1368646
-4.05254	havihitajiki	-0.1387941
-3.098298	hawa	-0.07583984
-4.05254	hawaijui	-0.1384089
-4.05254	hawajajua	-0.1390251
-4.05254	hawajawapeleka	-0.1351595
-4.05254	hawajaweza	-0.1389866
-4.05254	hawajazoea	-0.1389481
-4.05254	hawakosi	-0.1390251
-3.75151	hawakupiga	-0.2571879
-3.75151	hawakuwa	-0.1195852
-4.05254	hawakuzoea	-0.1389481
-3.45048	hawana	-0.09217584
-4.05254	hawatampuzika	-0.1201483
-4.05254	hawatazidi	-0.1389481
-4.05254	hawatokwi	-0.1201483
-4.05254	hawezi	-0.1385245
-4.05254	hawezifika	-0.1301609
-3.098298	haya	-0.1352438
-4.05254	hayahitajiki	-0.1387171
-4.05254	hayakutoka	-0.1390251
-3.098298	hayo	-0.09311685
-4.05254	hazili	-0.1389096
-4.05254	hazipati	-0.1389096
-4.05254	hebu	-0.1390251
-4.05254	hela	-0.1375988
-3.274389	henry	-0.2976964
-4.05254	heri	-0.1201483
-4.05254	hero	-0.1389866
-4.05254	hesabu	-0.1377147
-4.05254	hewa	-0.1389866
-4.05254	hewani	-0.1318465
-4.05254	hi	-0.09251866
-3.35357	hicho	-0.08399729
-2.362344	hii	-0.3224967
-3.75151	hiki	-0.1370193
-4.05254	hila	-0.1358579
-4.05254	hilary	-0.1390251
-2.84842	hili	-0.1561247
-2.730321	hilo	-0.1537379
-4.05254	hinche	-0.09251866
-3.75151	hindi	-0.09234727
-3.75151	hisia	-0.2561812
-3.75151	hispania	-0.09247581
-4.05254	hitilafu	-0.1386016
-2.6546	hivi	-0.1751713
-3.35357	hivo	-0.09136059
-2.521061	hivyo	-0.1116765
-2.461475	hiyo	-0.143961
-3.274389	hizi	-0.07805973
-2.973359	hizo	-0.184965
-3.35357	hofu	-0.1656862
-4.05254	hogera	-0.1377147
-4.05254	hosni	-0.1389866
-3.45048	hospitali	-0.1474544
-4.05254	house	-0.1375216
-4.05254	huadhiri	-0.1390251
-4.05254	huanza	-0.1389096
-4.05254	huchangia	-0.1382162
-4.05254	hudumia	-0.1369033
-3.35357	huenda	-0.1830847
-4.05254	hufanya	-0.1364003
-4.05254	hufanyi	-0.1387556
-4.05254	hugombaniwa	-0.1388711
-4.05254	hujitokeza	-0.1387941
-4.05254	hujma	-0.1386016
-4.05254	hujulikana	-0.1370193
-2.973359	huko	-0.2066929
-2.84842	huku	-0.1586351
-2.973359	humo	-0.5668899
-4.05254	humsaidia	-0.1390251
-4.05254	humu	-0.1389096
-2.472756	huo	-0.2516578
-4.05254	hurricane	-0.1390251
-3.207442	huru	-0.1148027
-4.05254	husababishwa	-0.1201483
-3.75151	hususan	-0.2593099
-2.822091	huu	-0.3319595
-3.207442	huwa	-0.1387556
-3.274389	huyo	-0.1668036
-3.098298	huyu	-0.09157712
-4.05254	huzuni	-0.1358579
-4.05254	i	-0.09251866
-4.05254	iangaliwe	-0.1384475
-3.45048	ibara	-0.1685742
-4.05254	ibichi	-0.1390251
-3.05254	idadi	-0.9053216
-2.84842	idhaa	-1.213299
-4.05254	idigo	-0.1390251
-4.05254	iende	-0.1389866
-4.05254	ifaidikie	-0.1277978
-4.05254	ifanyike	-0.09251866
-4.05254	ifikapo	-0.1389481
-4.05254	ifuatayo	-0.09251866
-3.75151	ifwatayo	-0.138486
-4.05254	igawaje	-0.1389866
-4.05254	iitwayo	-0.1390251
-4.05254	ijipatie	-0.1386786
-4.05254	ikalaumu	-0.09251866
-4.05254	ikaonekana	-0.1387171
-4.05254	ikawa	-0.1390251
-4.05254	ikielekea	-0.1366712
-4.05254	ikifanya	-0.1390251
-4.05254	ikiongozwa	-0.1201483
-4.05254	ikishasema	-0.1368646
-4.05254	ikitarajia	-0.1366712
-3.45048	ikiwa	-0.4148799
-4.05254	ikiwemo	-0.1370193
-4.05254	ikizidi	-0.1389866
-3.14945	iko	-0.1774546
-4.05254	ikulu	-0.1219132
-4.05254	ikumbukwe	-0.1381776
-4.05254	ila	-0.1389866
-4.05254	ilani	-0.1389481
-4.05254	ilaumiwe	-0.1385631
-3.35357	ile	-0.09123173
-2.730321	ili	-0.1086384
-4.05254	iliacha	-0.1389481
-4.05254	iliandamana	-0.1389866
-4.05254	iliharibika	-0.1377147
-4.05254	ilikufanya	-0.1388326
-4.05254	ilikujua	-0.1390251
-4.05254	ilikupinga	-0.1387941
-3.207442	ilikuwa	-0.1292959
-4.05254	ilikuweza	-0.1389096
-4.05254	ililenga	-0.1389866
-4.05254	ilimtafuta	-0.1389866
-4.05254	ilioko	-0.1390251
-4.05254	iliokuwa	-0.1390251
-4.05254	iliopita	-0.1201483
-3.75151	iliotolewa	-0.2404716
-4.05254	ilioyobarikiwa	-0.1201483
-3.75151	ilisababisha	-0.1368646
-3.75151	ilitokea	-0.1386786
-4.05254	ilituma	-0.1390251
-4.05254	iliuweze	-0.1390251
-4.05254	ilivyoamua	-0.1389866
-4.05254	ilivyokuwa	-0.1390251
-4.05254	iliyofanywa	-0.1201483
-4.05254	iliyopita	-0.09251866
-4.05254	imani	-0.1388711
-4.05254	imebaki	-0.138486
-4.05254	imechakachua	-0.09251866
-3.75151	imechukuliwa	-0.2585009
-3.75151	imefanya	-0.1371353
-4.05254	imefanyika	-0.1387941
-4.05254	imeimbuka	-0.1389096
-4.05254	imekosoa	-0.1382547
-4.05254	imekuja	-0.09251866
-3.575419	imekuwa	-0.1317682
-3.75151	imemtafuta	-0.2593099
-4.05254	imeogopewa	-0.1377147
-4.05254	imeonyesha	-0.1386016
-4.05254	imepagwa	-0.1201483
-4.05254	imepita	-0.1381776
-4.05254	imeripotiwa	-0.1389866
-4.05254	imesalimisha	-0.1389866
-4.05254	imesambabisha	-0.1369033
-3.75151	imesema	-0.1339931
-4.05254	imeshapita	-0.09251866
-4.05254	imethibitisha	-0.1389096
-3.45048	imetimia	-0.4214423
-3.575419	imetoa	-0.3997243
-4.05254	imewateua	-0.1382547
-3.75151	imezidi	-0.2593099
-4.05254	immediate	-0.1387171
-4.05254	in	-0.1390251
-3.098298	ina	-0.1195658
-3.75151	inabidi	-0.1386786
-4.05254	inadaiwa	-0.1369033
-3.75151	inaeleza	-0.1194242
-3.75151	inaendelea	-0.1360516
-4.05254	inafugana	-0.1201483
-4.05254	inahitajika	-0.1388711
-4.05254	inahofiwa	-0.1388711
-4.05254	inajenga	-0.1390251
-3.75151	inajiandaa	-0.1363615
-4.05254	inajirudia	-0.1388711
-4.05254	inakua	-0.1201483
-4.05254	inakuja	-0.1384089
-4.05254	inakujana	-0.1388326
-4.05254	inakutangazia	-0.1377533
-3.75151	inakuwa	-0.1318074
-3.75151	inakwenda	-0.1383704
-3.45048	inalenga	-0.3184128
-4.05254	inaleta	-0.1389481
-4.05254	inamaana	-0.1388711
-4.05254	inamaanisha	-0.1384089
-4.05254	inamatumaini	-0.1384475
-4.05254	inaonekana	-0.09251866
-4.05254	inaonyesha	-0.1364003
-4.05254	inaotajwa	-0.1389866
-4.05254	inapenda	-0.1387556
-4.05254	inaporomoka	-0.1351595
-3.75151	inapotokea	-0.212842
-4.05254	inaridhisha	-0.1374444
-4.05254	inasababisha	-0.1386786
-4.05254	inasajiliwa	-0.1382547
-4.05254	inasema	-0.1366712
-4.05254	inashikitishwa	-0.1201483
-4.05254	inashindwa	-0.1389866
-3.75151	inatajwa	-0.2404716
-3.45048	inatakiwa	-0.1386401
-4.05254	inatarajia	-0.1385245
-3.75151	inatarajiwa	-0.1387941
-3.75151	inategemewa	-0.2567236
-4.05254	inatilia	-0.1390251
-4.05254	inatoa	-0.1388711
-4.05254	inatufundisha	-0.1364003
-4.05254	inavyotoka	-0.09251866
-3.575419	inaweza	-0.09243297
-4.05254	inawezekana	-0.1364003
-3.75151	inayo	-0.1389866
-4.05254	inayokutangazia	-0.1373285
-4.05254	inayoongoza	-0.1301609
-4.05254	inayoongozwa	-0.1201483
-2.973359	india	-0.144778
-4.05254	indonesia	-0.09251866
-3.575419	ingabire	-0.1388711
-3.575419	ingawa	-0.3986834
-4.05254	ingawaje	-0.1389866
-4.05254	intenational	-0.1387556
-3.05254	international	-0.20745
-4.05254	internet	-0.09251866
-4.05254	ipata	-0.1386401
-4.05254	ipo	-0.1390251
-4.05254	irani	-0.1390251
-3.575419	iraq	-0.1685819
-4.05254	ishawishi	-0.1201483
-4.05254	ishiriki	-0.1388711
-2.75151	ishirini	-0.4750697
-4.05254	ishtuke	-0.1301609
-4.05254	islands	-0.09251866
-4.05254	israel	-0.1390251
-4.05254	ita	-0.1390251
-4.05254	itaandaliwa	-0.1384089
-3.75151	itachangia	-0.2592714
-4.05254	itacheleweshwa	-0.1201483
-4.05254	itaendelea	-0.1389096
-4.05254	itakapofika	-0.1390251
-3.75151	itakuwa	-0.1278767
-4.05254	itamjibu	-0.1389096
-4.05254	itapotea	-0.1381776
-4.05254	itashinda	-0.09251866
-4.05254	itatimiza	-0.1390251
-3.75151	itaweza	-0.2593099
-4.05254	itazidi	-0.1366712
-4.05254	iundwe	-0.1385245
-3.75151	ivoire	-0.09247581
-3.575419	ivory	-0.3998783
-4.05254	iwacu	-0.1366712
-3.45048	iweze	-0.3184898
-3.75151	iwezekanavyo	-0.212842
-3.14945	jakaya	-0.4216735
-3.75151	jamaa	-0.2404716
-3.45048	jambo	-0.1919433
-3.35357	jamhuri	-0.4885935
-3.575419	jamii	-0.09071588
-3.35357	jana	-0.1362179
-3.75151	janga	-0.2593099
-3.575419	januari	-0.09187566
-4.05254	japo	-0.1389866
-4.05254	jarkarta	-0.09251866
-4.05254	jarkata	-0.1390251
-3.75151	jasho	-0.09247581
-3.45048	je	-0.07432381
-3.75151	jeje	-0.1389866
-4.05254	jela	-0.1389096
-4.05254	jengo	-0.1390251
-4.05254	jeografia	-0.1387556
-3.35357	jeshi	-0.5030031
-4.05254	jiani	-0.09251866
-4.05254	jiji	-0.1382547
-2.938597	jijini	-0.2886372
-4.05254	jilii	-0.1219132
-4.05254	jim	-0.1386016
-4.05254	jimbo	-0.1363228
-3.14945	jina	-0.3554458
-4.05254	jinai	-0.1389866
-4.05254	jinamizi	-0.09251866
-3.75151	jingine	-0.2593099
-3.35357	jinsi	-0.1217531
-3.35357	jioni	-0.07168046
-3.75151	jipya	-0.2593099
-4.05254	jitihada	-0.1358579
-4.05254	jiwe	-0.1389866
-4.05254	jme	-0.1389866
-4.05254	joe	-0.1389481
-4.05254	joel	-0.1389481
-3.575419	john	-0.2153157
-4.05254	joto	-0.1387171
-4.05254	jua	-0.1381776
-4.05254	juba	-0.1385245
-3.75151	juhudi	-0.2561812
-4.05254	juiet	-0.1389866
-3.75151	jukumu	-0.08946673
-3.575419	julian	-0.2153542
-4.05254	juliet	-0.1389866
-3.207442	juma	-0.3201484
-3.75151	jumamosi	-0.1212322
-4.05254	jumanne	-0.1384089
-3.575419	jumapili	-0.1218332
-3.575419	jumatano	-0.07329526
-3.14945	jumuiya	-0.9370922
-4.05254	juni	-0.1382933
-3.75151	justice	-0.09243297
-3.274389	juu	-0.2879913
-3.75151	kaa	-0.1384474
-4.05254	kaba	-0.1372899
-3.274389	kabisa	-0.08123654
-3.207442	kabla	-0.2540269
-4.05254	kablu	-0.1219132
-3.35357	kadhaa	-0.0894236
-3.75151	kadhalika	-0.1389866
-4.05254	kadhia	-0.1375602
-4.05254	kahonja	-0.1390251
-4.05254	kaika	-0.1386786
-4.05254	kakao	-0.1387941
-4.05254	kali	-0.09251866
-2.328264	kama	-0.1510164
-3.45048	kambi	-0.1307104
-3.75151	kamili	-0.1294139
-2.973359	kampeni	-0.1029609
-3.575419	kampuni	-0.1967553
-3.75151	kanda	-0.212842
-3.575419	kanisa	-0.08752126
-3.75151	kanisani	-0.07141072
-4.05254	kanistan	-0.09251866
-4.05254	karam	-0.1389481
-3.098298	karibu	-0.2369447
-3.35357	karibuni	-0.09166113
-3.75151	karo	-0.2593099
-4.05254	kashfa	-0.1358579
-4.05254	kasi	-0.1219132
-4.05254	kaskazini	-0.09251866
-3.75151	kasoro	-0.1383704
-3.75151	kata	-0.1368646
-3.05254	kati	-0.242986
-3.207442	katiba	-0.2318412
-4.05254	katibu	-0.1390251
-2.048219	katika	-0.1868619
-3.75151	katikati	-0.1213925
-4.05254	kavu	-0.09251866
-3.35357	kawaida	-0.08561055
-2.797267	kazi	-0.1519231
-3.75151	kazini	-0.09204721
-3.75151	keep	-0.2593099
-3.207442	kenya	-0.2306295
-3.575419	kesho	-0.213232
-3.75151	kiafrika	-0.09187566
-4.05254	kiafya	-0.09251866
-3.75151	kiasi	-0.1386786
-4.05254	kibao	-0.09251866
-4.05254	kibarua	-0.1387556
-3.75151	kibiashara	-0.07995976
-4.05254	kibinadamu	-0.09251866
-3.75151	kidemokrasia	-0.07338479
-3.575419	kidiplomasia	-0.1688819
-3.35357	kidogo	-0.2278479
-4.05254	kieconomics	-0.1201483
-3.75151	kifo	-0.2581151
-4.05254	kifungo	-0.09251866
-4.05254	kifupi	-0.1301609
-4.05254	kigaidi	-0.1277978
-4.05254	kigali	-0.1318465
-4.05254	kigeni	-0.1390251
-4.05254	kiingereza	-0.09251866
-3.75151	kiinua	-0.2593099
-3.75151	kijeshi	-0.1022185
-3.75151	kikabila	-0.212842
-4.05254	kikali	-0.1390251
-4.05254	kikao	-0.1370193
-4.05254	kikifika	-0.1387171
-3.75151	kikubwa	-0.1380233
-3.75151	kikuu	-0.09110282
-3.207442	kikwete	-0.09166112
-3.011147	kila	-0.195314
-4.05254	kilavi	-0.09251866
-3.35357	kile	-0.1370193
-4.05254	kilele	-0.1358579
-3.575419	kilicho	-0.2148921
-4.05254	kilichojiri	-0.1386016
-4.05254	kilijivunia	-0.1389866
-4.05254	kilomita	-0.1386016
-4.05254	kimakosa	-0.1389866
-3.05254	kimataifa	-0.151098
-4.05254	kimatifa	-0.137869
-4.05254	kimbunga	-0.1377919
-4.05254	kimelaani	-0.1388326
-4.05254	kimeniuma	-0.1389096
-4.05254	kimeomba	-0.09251866
-4.05254	kimoja	-0.1388711
-4.05254	kimutandao	-0.1363228
-4.05254	kimya	-0.1374444
-3.575419	kina	-0.07136575
-3.75151	kinachochochea	-0.1389481
-4.05254	kinachoendelea	-0.09251866
-4.05254	kinachosimamia	-0.1388711
-4.05254	kinachozalisha	-0.1390251
-4.05254	kinakupa	-0.1389096
-4.05254	kinakuwa	-0.1390251
-3.75151	kinara	-0.08817071
-4.05254	kinaratibu	-0.1388326
-4.05254	kinatakiwa	-0.1390251
-4.05254	kinatarajiwa	-0.1386786
-4.05254	kinatoka	-0.1387171
-4.05254	kingdom	-0.1390251
-4.05254	kingereza	-0.1390251
-3.75151	kingine	-0.07141072
-4.05254	kinidhamu	-0.09251866
-4.05254	kinshansa	-0.1390251
-3.575419	kinyaganyiro	-0.1387556
-3.75151	kinyume	-0.2404716
-3.207442	kiongozi	-0.2209085
-3.75151	kipekee	-0.1218732
-3.274389	kipindi	-0.1739307
-3.098298	kipindupindu	-0.253417
-4.05254	kipo	-0.1386786
-4.05254	kipuuzi	-0.1388326
-4.05254	kiraia	-0.1376761
-4.05254	kiripoti	-0.1377533
-4.05254	kisagike	-0.1201483
-4.05254	kisangani	-0.09251866
-3.75151	kisheria	-0.1389096
-4.05254	kishinikiza	-0.1387941
-4.05254	kisiagike	-0.1387171
-2.84842	kisiasa	-0.2553664
-4.05254	kisichokuwa	-0.1201483
-4.05254	kisiwa	-0.1366712
-3.75151	kisociolist	-0.212842
-4.05254	kisomali	-0.09251866
-2.6546	kiswahili	-0.6787906
-3.75151	kitaifa	-0.1126071
-3.35357	kitambulisho	-0.1350584
-4.05254	kitatuwezesha	-0.1390251
-4.05254	kitechnologia	-0.09251866
-4.05254	kitendawili	-0.1377919
-3.274389	kitendo	-0.3044055
-3.274389	kiti	-0.417541
-2.906412	kitu	-0.097824
-4.05254	kituoni	-0.1381776
-4.05254	kitware	-0.1389481
-3.575419	kiuchumi	-0.08860315
-4.05254	kiujumla	-0.09251866
-3.575419	kivu	-0.09243297
-4.05254	kiwanda	-0.1377919
-4.05254	kiweze	-0.09251866
-4.05254	kizungu	-0.1364003
-4.05254	kizuri	-0.1377147
-4.05254	klabu	-0.1375602
-3.75151	kocha	-0.1376374
-4.05254	konan	-0.1390251
-3.75151	korea	-0.2591944
-4.05254	korokoroni	-0.1388711
-4.05254	kosa	-0.1389866
-4.05254	kote	-0.1390251
-3.75151	kouruma	-0.09247581
-3.575419	ku	-0.09239013
-4.05254	kuaanzia	-0.1384089
-4.05254	kuadhiri	-0.1389481
-3.75151	kuaga	-0.2589249
-4.05254	kualikwa	-0.1301609
-4.05254	kuandaa	-0.1368646
-3.75151	kuangalia	-0.1388326
-3.75151	kuania	-0.1385245
-3.14945	kuanza	-0.2074772
-4.05254	kuanzia	-0.1381005
-4.05254	kuapishwa	-0.1383704
-4.05254	kuasili	-0.1351595
-4.05254	kuazia	-0.09251866
-4.05254	kubaki	-0.1389866
-4.05254	kubandika	-0.1390251
-3.05254	kubwa	-0.1852655
-4.05254	kuchagua	-0.1301609
-3.75151	kuchapishwa	-0.2591559
-4.05254	kuchelewa	-0.1301609
-4.05254	kuchemsha	-0.1370193
-4.05254	kuchoma	-0.1386016
-4.05254	kuchosha	-0.09251866
-3.75151	kuchuana	-0.2591559
-3.14945	kuchukua	-0.1471537
-4.05254	kuchunguza	-0.1389096
-3.75151	kudai	-0.2593099
-4.05254	kudo	-0.1389866
-3.75151	kudorola	-0.08817071
-4.05254	kudumisha	-0.1381776
-3.45048	kudumu	-0.08456479
-3.75151	kuelekea	-0.1346933
-3.75151	kuelewa	-0.1382162
-4.05254	kuelezea	-0.1385245
-3.75151	kuenda	-0.1378304
-3.274389	kuendelea	-0.1916229
-3.575419	kuendeleza	-0.2064884
-4.05254	kuendesha	-0.1387556
-4.05254	kuepusha	-0.1387171
-4.05254	kufa	-0.09251866
-4.05254	kufahamishwa	-0.1389866
-4.05254	kufahamu	-0.1384089
-4.05254	kufaindisha	-0.1382547
-4.05254	kufanikiwa	-0.1390251
-2.906412	kufanya	-0.1802963
-3.45048	kufanyika	-0.1901567
-3.75151	kufanyiwa	-0.2586937
-3.75151	kufanywa	-0.1194645
-4.05254	kuficha	-0.1389866
-4.05254	kufika	-0.1389481
-4.05254	kufuata	-0.1388326
-3.575419	kufuatia	-0.1370193
-4.05254	kufunguliwa	-0.1388326
-4.05254	kufungwa	-0.09251866
-4.05254	kufwatia	-0.1390251
-4.05254	kugombania	-0.1386786
-4.05254	kugundua	-0.1390251
-3.75151	kuhakiki	-0.09209009
-3.14945	kuhakikisha	-0.1666778
-4.05254	kuhesabiwa	-0.1301609
-4.05254	kuhesabu	-0.1368646
-4.05254	kuhofia	-0.1381776
-4.05254	kuhudhuria	-0.09251866
-4.05254	kuhusiana	-0.1201483
-4.05254	kuiba	-0.1368646
-3.75151	kuibua	-0.1388326
-4.05254	kuibuka	-0.1201483
-4.05254	kuifwata	-0.1389866
-3.75151	kuigir	-0.09234727
-3.75151	kuijenga	-0.2590789
-4.05254	kuikomboa	-0.1389481
-3.75151	kuimarisha	-0.1383704
-3.75151	kuimbuka	-0.2593099
-3.75151	kuingia	-0.1389096
-3.75151	kuingilia	-0.2590019
-4.05254	kuinua	-0.1388326
-4.05254	kuiongoza	-0.1382162
-3.575419	kuipanua	-0.2131934
-3.75151	kuisaidia	-0.2574586
-3.75151	kuishi	-0.1195047
-4.05254	kuita	-0.1377533
-3.575419	kuitegea	-0.3997628
-3.75151	kuja	-0.1387941
-4.05254	kujadili	-0.1388326
-4.05254	kujaribu	-0.1389481
-3.35357	kujenga	-0.2755544
-4.05254	kujeruhiwa	-0.1390251
-4.05254	kujiamini	-0.1382162
-3.75151	kujifunza	-0.08447753
-4.05254	kujitoa	-0.1390251
-4.05254	kujitokeza	-0.1387556
-4.05254	kujiunga	-0.1201483
-4.05254	kujivunia	-0.1381776
-3.75151	kujua	-0.09178986
-3.45048	kujumlisha	-0.2708074
-4.05254	kujumulisha	-0.137869
-3.75151	kukaa	-0.1378304
-4.05254	kukabidhi	-0.1389866
-4.05254	kukoboa	-0.1389866
-4.05254	kukodi	-0.09251866
-4.05254	kukosa	-0.1386016
-3.75151	kukosekana	-0.2504841
-4.05254	kukubaliana	-0.1201483
-4.05254	kukuhabarisha	-0.09251866
-4.05254	kukula	-0.1384475
-4.05254	kukuletea	-0.1387941
-4.05254	kukumbana	-0.1201483
-4.05254	kukushababisha	-0.1382162
-4.05254	kukutana	-0.1201483
-4.05254	kukutanisha	-0.138486
-4.05254	kukuwa	-0.09251866
-3.75151	kukuza	-0.2590019
-3.45048	kula	-0.09226157
-4.05254	kulalamika	-0.1375988
-3.575419	kule	-0.1387941
-4.05254	kuleni	-0.1389866
-3.75151	kuleta	-0.138563
-4.05254	kuligana	-0.1201483
-3.75151	kulijenga	-0.2585395
-3.75151	kuliko	-0.1370966
-4.05254	kulikochangiwa	-0.1201483
-3.45048	kulikuwa	-0.4031817
-3.45048	kulinda	-0.193375
-3.45048	kulingana	-0.4031817
-4.05254	kuliona	-0.1385631
-3.75151	kulipiwa	-0.2593099
-4.05254	kulitatua	-0.09251866
-3.75151	kumaliza	-0.1387556
-4.05254	kumalizika	-0.09251866
-4.05254	kumbe	-0.1388711
-3.45048	kumbuka	-0.1937226
-3.75151	kumekuwa	-0.2404716
-4.05254	kumeongeza	-0.1386786
-4.05254	kumeshuhudiwa	-0.1201483
-2.75151	kumi	-0.5918996
-4.05254	kumradhi	-0.1382547
-4.05254	kumuachia	-0.1390251
-4.05254	kumufanya	-0.1382162
-4.05254	kumuradhi	-0.1390251
-4.05254	kumuteua	-0.1389866
-4.05254	kumwachia	-0.1387941
-4.05254	kumwapisha	-0.09251866
-2.906412	kuna	-0.1292745
-4.05254	kunacho	-0.1390251
-4.05254	kunakosa	-0.1389866
-4.05254	kunakuwa	-0.1201483
-4.05254	kunaniwezesha	-0.1318465
-4.05254	kunasema	-0.1390251
-3.75151	kunaweka	-0.2591174
-3.45048	kundi	-0.4193562
-4.05254	kuni	-0.1318465
-4.05254	kuo	-0.09251866
-4.05254	kuogopa	-0.1219132
-3.207442	kuona	-0.1492492
-4.05254	kuondoa	-0.1390251
-3.75151	kuondoka	-0.1301216
-3.75151	kuondolewa	-0.08259717
-3.75151	kuonekana	-0.07141072
-4.05254	kuonesha	-0.1388711
-4.05254	kuongea	-0.1381005
-3.575419	kuongeza	-0.1388711
-3.75151	kuongezeka	-0.08259717
-4.05254	kuongezewa	-0.1387171
-4.05254	kuongoza	-0.1381776
-4.05254	kupambana	-0.09251866
-3.75151	kupangwa	-0.2504841
-3.575419	kupanua	-0.3534488
-4.05254	kupasha	-0.1366712
-3.098298	kupata	-0.09118877
-4.05254	kupatikana	-0.1301609
-4.05254	kupelekwa	-0.137869
-3.75151	kupewa	-0.2592714
-2.773787	kupiga	-0.9971807
-4.05254	kupigana	-0.1201483
-3.575419	kupigia	-0.2108662
-3.75151	kupigwa	-0.09217584
-4.05254	kupima	-0.1390251
-4.05254	kupinduliwa	-0.09251866
-3.75151	kupinga	-0.2574972
-3.14945	kupitia	-0.1561614
-4.05254	kupitishwa	-0.1301609
-3.45048	kupoteza	-0.3183357
-4.05254	kupungua	-0.1301609
-3.274389	kupunguza	-0.1384475
-2.296665	kura	-0.340995
-4.05254	kurekebishwa	-0.09251866
-4.05254	kuripotiwa	-0.1389866
-4.05254	kurudia	-0.1390251
-3.75151	kusababisha	-0.1388711
-3.75151	kusabisha	-0.1381391
-4.05254	kusafirishwa	-0.1301609
-4.05254	kusagika	-0.1384475
-4.05254	kusahau	-0.1389096
-3.75151	kusaidia	-0.1389866
-3.45048	kusaidiwa	-0.2520916
-3.75151	kusajili	-0.1377918
-3.45048	kusema	-0.1325502
-4.05254	kushambuliwa	-0.1366712
-4.05254	kushauriana	-0.1201483
-3.75151	kushinda	-0.1261756
-4.05254	kushindana	-0.1390251
-4.05254	kushirika	-0.1390251
-4.05254	kushirikiana	-0.1387556
-4.05254	kushtukiza	-0.137869
-4.05254	kushuhudia	-0.1389096
-4.05254	kusifu	-0.1372512
-4.05254	kusikia	-0.1377533
-3.575419	kusikiliza	-0.1684105
-4.05254	kusikiza	-0.09251866
-3.575419	kusimama	-0.3996472
-3.35357	kusini	-0.2296941
-3.75151	kusipokuwa	-0.2404716
-3.575419	kustaafu	-0.196474
-3.75151	kustahili	-0.212842
-4.05254	kutafsiriwa	-0.1366712
-3.35357	kutafuta	-0.1371353
-3.75151	kutaka	-0.1382933
-4.05254	kutambua	-0.1366712
-3.75151	kutanda	-0.2588863
-4.05254	kutangaza	-0.1386401
-4.05254	kutangazia	-0.1373285
-3.75151	kutangazwa	-0.09239013
-4.05254	kutatisha	-0.1387556
-4.05254	kutawala	-0.1351595
-4.05254	kutaweza	-0.1389866
-3.75151	kutegea	-0.2591559
-4.05254	kuteka	-0.1389866
-3.575419	kutekeleza	-0.2143909
-4.05254	kutekelezeka	-0.1390251
-4.05254	kutekelezwa	-0.1201483
-3.75151	kutembea	-0.1380619
-4.05254	kutembelea	-0.1387941
-4.05254	kutengeneza	-0.1390251
-4.05254	kutetea	-0.1390251
-3.75151	kuthibitisha	-0.09191856
-4.05254	kutimiza	-0.1389866
-3.575419	kutoa	-0.1382547
-4.05254	kutochagua	-0.09251866
-4.05254	kutojitokeza	-0.1351595
-2.521061	kutoka	-0.1958883
-3.274389	kutokana	-0.4719981
-3.75151	kutokea	-0.09247581
-4.05254	kutokuelewana	-0.09251866
-4.05254	kutokuwepo	-0.1301609
-3.75151	kutopiga	-0.2571879
-4.05254	kutoroka	-0.1389096
-4.05254	kutosha	-0.1387556
-4.05254	kutosheleza	-0.1351595
-4.05254	kutowaona	-0.1388711
-4.05254	kutowaruhusu	-0.1369033
-4.05254	kutufahamisha	-0.09251866
-3.75151	kutuma	-0.2591559
-3.45048	kutumia	-0.1369806
-3.575419	kutumikia	-0.3978334
-4.05254	kutunza	-0.1386786
-4.05254	kutushauria	-0.1382547
-4.05254	kututegea	-0.1388326
-4.05254	kuua	-0.1369033
-4.05254	kuuawa	-0.1301609
-4.05254	kuujenga	-0.1385245
-4.05254	kuuma	-0.1390251
-4.05254	kuunda	-0.1386016
-4.05254	kuunganisha	-0.1386401
-4.05254	kuunguza	-0.09251866
-3.75151	kuvamia	-0.1388326
-4.05254	kuvunja	-0.1388326
-2.260148	kuwa	-0.1035966
-4.05254	kuwaeleza	-0.1385631
-4.05254	kuwafanyia	-0.1390251
-4.05254	kuwafunga	-0.1387556
-3.75151	kuwafungia	-0.2587322
-4.05254	kuwakandamiza	-0.1388711
-4.05254	kuwakataa	-0.09251866
-4.05254	kuwaletea	-0.1386016
-4.05254	kuwaona	-0.09251866
-4.05254	kuwaondoa	-0.09251866
-4.05254	kuwaonyesha	-0.1364003
-4.05254	kuwapigia	-0.1201483
-4.05254	kuwaweka	-0.1390251
-4.05254	kuwe	-0.1201483
-3.45048	kuweka	-0.1381391
-4.05254	kuwekeana	-0.1390251
-3.75151	kuwekwa	-0.2593099
-4.05254	kuwenza	-0.1389481
-3.35357	kuwepo	-0.3359441
-3.45048	kuweza	-0.1388711
-3.75151	kuyafanyia	-0.2586937
-4.05254	kuzifanya	-0.1389866
-4.05254	kuzitembelea	-0.1382547
-1.692705	kwa	-0.2631941
-4.05254	kwaaa	-0.1374444
-4.05254	kwaheri	-0.1372899
-4.05254	kwajili	-0.1385245
-3.75151	kwake	-0.1386786
-4.05254	kwako	-0.1385631
-2.213691	kwamba	-0.1374897
-3.575419	kwangu	-0.3927766
-3.14945	kwani	-0.1336036
-4.05254	kwanini	-0.1382933
-2.938597	kwanza	-0.1344975
-4.05254	kwao	-0.137869
-3.35357	kweli	-0.1201885
-3.05254	kwenda	-0.1139573
-2.561178	kwenye	-0.1201675
-3.75151	kwetu	-0.2521698
-4.05254	kwisha	-0.1389096
-2.201282	la	-0.2000036
-3.35357	labda	-0.09131765
-3.75151	labour	-0.2593099
-4.05254	laini	-0.1386016
-4.05254	lake	-0.1375988
-2.472756	lakini	-0.1496903
-3.75151	langa	-0.1387556
-4.05254	langalanga	-0.1389866
-3.14945	langu	-0.2751236
-3.35357	lauren	-0.5055513
-4.05254	laurent	-0.09251866
-4.05254	lavloenibwa	-0.09251866
-4.05254	lazari	-0.09251866
-2.938597	lazima	-0.2077086
-4.05254	lazma	-0.09251866
-4.05254	leah	-0.1390251
-4.05254	lenye	-0.1389481
-2.797267	leo	-0.1875096
-4.05254	lewis	-0.1390251
-4.05254	libwi	-0.1363228
-4.05254	licha	-0.1219132
-4.05254	lifanyike	-0.1301609
-4.05254	likaathiri	-0.1390251
-4.05254	likiomba	-0.1384475
-3.75151	likiwemo	-0.2592329
-4.05254	lile	-0.1363228
-4.05254	lili	-0.09251866
-4.05254	lilian	-0.1390251
-4.05254	lililo	-0.1390251
-4.05254	lililokufanya	-0.1390251
-3.75151	lililopita	-0.1382547
-4.05254	lililothibitishwa	-0.1389866
-4.05254	limeandikisha	-0.1388711
-4.05254	limeanza	-0.1389866
-4.05254	limechangia	-0.1386401
-4.05254	limekabiliana	-0.1390251
-4.05254	limekanusha	-0.1385245
-4.05254	limekwenda	-0.1384475
-4.05254	limelaani	-0.1388326
-4.05254	limeshuhudia	-0.1386401
-4.05254	limetumika	-0.1389096
-3.75151	lina	-0.1378304
-4.05254	linafanikiwa	-0.09251866
-3.45048	linalo	-0.1389096
-3.75151	linalochangia	-0.2592714
-4.05254	linaloendelea	-0.1375216
-3.75151	linalohitaji	-0.2593099
-4.05254	linaloitwa	-0.1390251
-4.05254	linalopinga	-0.1387941
-4.05254	linaloshughulikia	-0.1386401
-4.05254	linalotetea	-0.1388326
-4.05254	linalowahudumia	-0.1369033
-4.05254	linasaidia	-0.1390251
-4.05254	linasukumwa	-0.1201483
-4.05254	linatarajia	-0.1385245
-4.05254	linatu	-0.09251866
-4.05254	linaweza	-0.1390251
-4.05254	lindi	-0.1389481
-3.575419	lingine	-0.1357415
-4.05254	linked	-0.1201483
-4.05254	lipo	-0.1390251
-4.05254	lipumba	-0.1390251
-3.575419	lishe	-0.3534488
-4.05254	lisiwe	-0.1389096
-4.05254	litaweza	-0.1390251
-4.05254	liverpool	-0.09251866
-4.05254	liwe	-0.1389096
-4.05254	lola	-0.1390251
-3.75151	lolote	-0.09247581
-4.05254	lubumbashi	-0.1351595
-3.75151	lugha	-0.1213925
-4.05254	luiz	-0.1390251
-4.05254	lukumbuka	-0.1390251
-4.05254	lula	-0.1390251
-3.75151	lusaka	-0.1386786
-3.75151	ma	-0.2590019
-4.05254	maadui	-0.1351595
-4.05254	maafa	-0.1382162
-4.05254	maafisa	-0.1390251
-4.05254	maambukizi	-0.1387171
-3.575419	maamuzi	-0.1497909
-3.011147	maana	-0.1958787
-4.05254	maanani	-0.1219132
-4.05254	maandalizi	-0.1219132
-3.45048	maandamano	-0.1765981
-3.575419	maandishi	-0.1684962
-4.05254	maarufu	-0.1370193
-4.05254	maaskari	-0.1201483
-4.05254	maaskofu	-0.1366712
-3.274389	mabadiliko	-0.2764282
-3.75151	mabaharia	-0.212842
-4.05254	mabaki	-0.1219132
-3.75151	mabandiliko	-0.2422365
-4.05254	mabango	-0.09251866
-3.75151	mabaraza	-0.2591944
-3.575419	mabaya	-0.3828434
-4.05254	mabomu	-0.1201483
-4.05254	machaku	-0.1277978
-4.05254	maclauren	-0.1390251
-4.05254	macwebb	-0.1386401
-4.05254	mada	-0.1318465
-4.05254	madagascar	-0.09251866
-3.75151	madaktari	-0.2554828
-3.274389	madarakani	-0.2410424
-4.05254	madawa	-0.1387171
-4.05254	madereva	-0.1277978
-4.05254	madhara	-0.1390251
-4.05254	madhumuni	-0.09251866
-4.05254	madi	-0.1318465
-4.05254	madii	-0.1318465
-3.575419	madini	-0.1653549
-3.274389	madogo	-0.2005371
-4.05254	maelfu	-0.09251866
-3.011147	maendeleo	-0.1415372
-3.274389	maeneo	-0.2790087
-3.75151	mafanikio	-0.2422365
-4.05254	mafuriko	-0.1387941
-2.973359	mafuta	-0.1326523
-3.45048	magari	-0.0903286
-3.75151	magazeti	-0.1199473
-3.75151	maggie	-0.1372512
-3.207442	magonjwa	-0.2048874
-3.274389	mahakama	-0.2305405
-4.05254	mahali	-0.1390251
-3.75151	maharamia	-0.1386401
-4.05254	mahasibu	-0.1389866
-4.05254	mahasimu	-0.1389866
-4.05254	mahesabu	-0.1219132
-3.75151	mahitaji	-0.1213925
-3.207442	maisha	-0.1521157
-4.05254	majaliwa	-0.1389866
-3.75151	maji	-0.2593099
-4.05254	majimbo	-0.1387171
-3.75151	majina	-0.1386016
-4.05254	majini	-0.09251866
-3.75151	majirani	-0.2592714
-3.75151	majukumu	-0.2586551
-4.05254	majumba	-0.1388711
-3.75151	majumbani	-0.2404716
-4.05254	makaazi	-0.1219132
-4.05254	makabila	-0.1388711
-2.973359	makala	-0.287595
-4.05254	makali	-0.1219132
-4.05254	makama	-0.1219132
-4.05254	makarani	-0.1390251
-4.05254	makombora	-0.1389481
-3.75151	makosa	-0.1178512
-3.35357	makubwa	-0.2270297
-3.575419	makuu	-0.09239013
-3.75151	malalamiko	-0.1385245
-4.05254	malori	-0.1388711
-3.274389	mama	-0.1729639
-4.05254	mamadou	-0.1389866
-4.05254	mambadiliko	-0.1277978
-2.730321	mambo	-0.122265
-4.05254	mamlaka	-0.09251866
-4.05254	manager	-0.1387171
-3.575419	manake	-0.138563
-3.575419	manchester	-0.2152772
-4.05254	maneno	-0.09251866
-4.05254	manne	-0.09251866
-4.05254	maofisa	-0.1277978
-3.75151	maoni	-0.09247581
-3.35357	mapema	-0.119545
-4.05254	mapendekezo	-0.1219132
-4.05254	mapokezi	-0.1389481
-2.906412	mara	-0.5067517
-4.05254	maradhi	-0.1219132
-3.75151	marafiki	-0.2591944
-3.45048	marais	-0.1265322
-2.54739	marekani	-0.3238
-4.05254	maritime	-0.1390251
-4.05254	mark	-0.1390251
-4.05254	martin	-0.1318465
-4.05254	masaa	-0.1370193
-4.05254	masanduku	-0.1219132
-4.05254	mashaka	-0.1318465
-3.575419	mashambulizi	-0.2152387
-3.14945	mashariki	-0.1577568
-3.274389	mashindano	-0.2121167
-3.75151	mashirika	-0.2422365
-3.75151	mashtaka	-0.1206705
-3.75151	mashuleni	-0.2404716
-4.05254	maskini	-0.09251866
-3.575419	maslahi	-0.1975581
-4.05254	masoko	-0.1219132
-4.05254	masomo	-0.09251866
-3.207442	masuala	-0.2508915
-4.05254	maswada	-0.1219132
-3.274389	maswala	-0.231564
-3.75151	maswali	-0.1205501
-2.730321	mataifa	-0.2350856
-3.207442	matangazo	-0.1366279
-3.75151	matarajio	-0.1377532
-3.75151	matatizo	-0.1388326
-4.05254	matayarisho	-0.1219132
-4.05254	matibabu	-0.1301609
-4.05254	matofali	-0.09251866
-3.011147	matokeo	-0.7614685
-4.05254	matukio	-0.1388326
-3.575419	matumaini	-0.09058683
-4.05254	matumbo	-0.1388711
-3.575419	matumizi	-0.3998783
-3.45048	matunda	-0.2904636
-3.75151	mauaji	-0.1215127
-3.75151	mawakili	-0.2481211
-3.75151	mawaziri	-0.212842
-3.35357	mawili	-0.210422
-3.45048	mazingira	-0.1441354
-3.45048	maziwa	-0.1946865
-3.14945	mazoezi	-0.1857842
-4.05254	mazungumuzo	-0.1390251
-4.05254	mazungumzo	-0.09251866
-4.05254	mbabe	-0.09251866
-3.14945	mbali	-0.1992148
-2.822091	mbalimbali	-0.1427141
-4.05254	mbao	-0.1387556
-3.75151	mbaya	-0.1210317
-4.05254	mbele	-0.1385631
-2.561178	mbili	-0.4505114
-3.75151	mbio	-0.2561812
-4.05254	mbioni	-0.1389481
-3.274389	mboga	-0.241275
-3.45048	mbunge	-0.1212723
-3.75151	mchakato	-0.09226157
-3.75151	mchambuzi	-0.2481211
-4.05254	mchana	-0.1389481
-3.75151	mchanganuzi	-0.2481211
-4.05254	mchango	-0.1277978
-4.05254	mchele	-0.1377533
-3.75151	mchezaji	-0.1276398
-3.35357	mchezo	-0.2630798
-4.05254	mdogo	-0.09251866
-3.575419	meli	-0.120309
-3.45048	mengi	-0.1377918
-3.45048	mengine	-0.1854218
-4.05254	meya	-0.09251866
-4.05254	meza	-0.09251866
-3.75151	mezani	-0.08259717
-3.35357	mfano	-0.2735452
-3.75151	mfisadi	-0.09247581
-4.05254	mfumo	-0.1375988
-3.35357	mfupi	-0.2642683
-4.05254	mgogoro	-0.1370193
-3.098298	mgombea	-0.1759086
-3.75151	mgongo	-0.212842
-3.75151	mhadhiri	-0.2554828
-4.05254	mhanga	-0.09251866
-3.75151	mhesimiwa	-0.1386786
-3.75151	mhimu	-0.1297679
-4.05254	mhoroni	-0.1390251
-2.822091	mia	-0.4081435
-3.207442	miaka	-0.2018455
-4.05254	miamba	-0.1219132
-4.05254	miatano	-0.1201483
-4.05254	mibovu	-0.1381776
-3.45048	michezo	-0.1142247
-4.05254	miezi	-0.1382933
-3.75151	miguu	-0.09071588
-4.05254	mihula	-0.1390251
-4.05254	miji	-0.1201483
-4.05254	mikakati	-0.1387556
-4.05254	mikataba	-0.1390251
-4.05254	mikoani	-0.1390251
-4.05254	mikonga	-0.1201483
-4.05254	mikunjo	-0.1390251
-4.05254	mikutano	-0.1385631
-4.05254	milima	-0.09251866
-3.05254	milioni	-0.1885772
-4.05254	military	-0.1389866
-4.05254	mimba	-0.1387171
-2.75151	mimi	-0.2178117
-4.05254	mingi	-0.1219132
-4.05254	mingine	-0.1390251
-3.75151	miongoni	-0.2593099
-3.575419	misaada	-0.2150462
-4.05254	misitu	-0.1388326
-3.35357	misri	-0.1154894
-4.05254	mitandao	-0.1388711
-3.75151	mitano	-0.09041469
-4.05254	miundo	-0.1390251
-4.05254	miwili	-0.09251866
-3.75151	mjadala	-0.2592714
-3.207442	mji	-0.2608701
-3.575419	mjini	-0.09204721
-4.05254	mjumbe	-0.1277978
-3.575419	mkali	-0.1247859
-4.05254	mkasa	-0.1375988
-4.05254	mke	-0.1201483
-4.05254	mkitumia	-0.1389096
-3.35357	mkono	-0.1224061
-4.05254	mktasari	-0.1277978
-3.14945	mkubwa	-0.1366214
-3.575419	mkupa	-0.1382547
-3.35357	mkurugenzi	-0.3374873
-4.05254	mkusaidia	-0.1351595
-3.011147	mkutano	-0.3101486
-2.561178	mkuu	-0.7176411
-3.35357	mlipuko	-0.2635159
-3.75151	mlo	-0.1387556
-3.207442	mmoja	-0.122061
-4.05254	mnakotusikiliza	-0.1382547
-4.05254	mno	-0.1388326
-4.05254	moduli	-0.1390251
-3.45048	mohamed	-0.421943
-2.399328	moja	-0.357543
-4.05254	mombasa	-0.1388711
-3.75151	morocco	-0.09230442
-4.05254	morogoro	-0.1373671
-4.05254	mose	-0.09251866
-4.05254	mosi	-0.1389481
-3.75151	movement	-0.07141072
-3.45048	moyo	-0.09062985
-3.274389	mpaka	-0.2129612
-3.575419	mpangilio	-0.3998783
-3.75151	mpango	-0.1270467
-3.75151	mpiga	-0.2571879
-3.75151	mpinzani	-0.2586551
-3.575419	mpya	-0.1278372
-3.75151	mradi	-0.1372898
-3.575419	mrefu	-0.1645768
-3.45048	mrisho	-0.2718374
-4.05254	msaka	-0.137869
-4.05254	msako	-0.1277978
-3.45048	msemaji	-0.4108312
-4.05254	msemo	-0.1390251
-4.05254	msha	-0.09251866
-4.05254	mshambuliaji	-0.1390251
-4.05254	mshauri	-0.1372512
-3.575419	mshindi	-0.1335646
-4.05254	mshukumo	-0.1277978
-2.938597	msikilizaji	-0.1149281
-3.75151	msimamizi	-0.2481211
-3.75151	msimu	-0.2587322
-3.207442	msingi	-0.3652982
-4.05254	mstaafu	-0.1390251
-4.05254	msumbiji	-0.09251866
-4.05254	mtaani	-0.1387941
-4.05254	mtandao	-0.1277978
-4.05254	mtangazaji	-0.1387556
-4.05254	mtayarishaji	-0.1201483
-4.05254	mtazamo	-0.1387556
-4.05254	mtegnwa	-0.1389866
-4.05254	mtendaji	-0.1277978
-4.05254	mtetezi	-0.1389481
-3.274389	mtoto	-0.3038257
-2.710117	mtu	-0.1239398
-4.05254	mubabe	-0.09251866
-3.75151	mubarak	-0.1389866
-3.75151	muchangamuzi	-0.2481211
-4.05254	muchanganuzi	-0.1277978
-3.207442	muda	-0.2597961
-3.75151	mudhamini	-0.2591944
-4.05254	mufugaji	-0.1389866
-3.75151	mugawanyiko	-0.2590019
-2.906412	muhimu	-0.3581623
-4.05254	muhtasari	-0.1277978
-4.05254	muhula	-0.09251866
-3.75151	muhuzenge	-0.09247581
-3.45048	mujibu	-0.4108312
-4.05254	mukasema	-0.1390251
-4.05254	mukikamatana	-0.1389866
-4.05254	mukitumia	-0.1389096
-4.05254	mukogwe	-0.1277978
-4.05254	mume	-0.1201483
-4.05254	munalinda	-0.1381776
-4.05254	munaweza	-0.1390251
-3.207442	mungu	-0.07995976
-4.05254	musikilizaji	-0.1388711
-4.05254	musimu	-0.1389481
-3.75151	musuada	-0.0908879
-3.575419	musukumo	-0.3887279
-3.575419	muswada	-0.2027006
-4.05254	mutawapata	-0.1384089
-4.05254	mutegwa	-0.1389866
-4.05254	muteule	-0.1390251
-4.05254	mutwa	-0.1389866
-3.575419	muungano	-0.1865936
-4.05254	muuu	-0.1390251
-4.05254	muuuu	-0.1389866
-4.05254	muziki	-0.1358579
-4.05254	mvuto	-0.09251866
-3.75151	mwa	-0.1383318
-4.05254	mwafaka	-0.09251866
-4.05254	mwagura	-0.09251866
-2.906412	mwaka	-0.4071212
-4.05254	mwakani	-0.09251866
-3.75151	mwalimu	-0.09247581
-3.75151	mwanadamu	-0.1388326
-4.05254	mwanamke	-0.1389481
-3.75151	mwanasiasa	-0.1387941
-3.14945	mwandishi	-0.953742
-3.75151	mwangalizi	-0.1365551
-4.05254	mwangura	-0.1389866
-3.75151	mwanzo	-0.1382162
-4.05254	mwaona	-0.1389866
-3.75151	mwazo	-0.2588478
-4.05254	mweko	-0.09251866
-3.75151	mwelekeo	-0.2579221
-4.05254	mwendesha	-0.1389866
-4.05254	mwenezi	-0.1382162
-3.35357	mwengine	-0.1314159
-3.35357	mwenye	-0.1380619
-3.75151	mwenyewe	-0.138563
-3.75151	mwenyezi	-0.2591174
-4.05254	mwenzangu	-0.1387171
-3.575419	mwera	-0.1590033
-3.75151	mwezangu	-0.1387941
-4.05254	mwezetu	-0.1389481
-3.098298	mwezi	-0.2030967
-2.906412	mwili	-0.1716657
-3.098298	mwilini	-0.1950923
-3.75151	mwisho	-0.1372126
-3.75151	mynamar	-0.1389866
-3.75151	mzima	-0.07141072
-3.575419	mzito	-0.09114579
-3.575419	mzuri	-0.3534488
-1.370395	na	-0.05946942
-4.05254	naachia	-0.1389866
-2.973359	naam	-0.0980147
-4.05254	naambiwa	-0.1390251
-4.05254	naangalia	-0.1389866
-3.75151	nadhani	-0.122793
-3.45048	naelezwa	-0.2987609
-3.14945	nafasi	-0.2607725
-3.75151	nafikiri	-0.1369806
-3.575419	nafurahi	-0.2117209
-3.75151	nahitaji	-0.2590019
-4.05254	naibu	-0.1386016
-4.05254	naipenda	-0.1389866
-3.45048	nairobi	-0.1357803
-4.05254	naitaka	-0.1301609
-4.05254	naitwa	-0.1390251
-4.05254	najitahidi	-0.1390251
-4.05254	nakiweze	-0.1377533
-4.05254	nakuaga	-0.1390251
-4.05254	nakualika	-0.1389481
-4.05254	nakukaribisha	-0.1389481
-4.05254	nakumbuka	-0.1388326
-3.75151	nakushukuru	-0.1375216
-4.05254	nakusihi	-0.1390251
-4.05254	nakutakia	-0.1386401
-4.05254	nakwambia	-0.1389096
-4.05254	nalipongeza	-0.09251866
-3.75151	nalo	-0.09247581
-3.35357	namba	-0.1197462
-3.75151	nami	-0.2590404
-4.05254	namna	-0.1388326
-4.05254	nampogeza	-0.09251866
-3.098298	nane	-0.291349
-3.35357	nani	-0.09221871
-3.75151	nao	-0.1381391
-4.05254	naoa	-0.09251866
-3.575419	naona	-0.1350042
-4.05254	napita	-0.1381776
-3.75151	nashawishika	-0.2569945
-4.05254	nashukuru	-0.1377147
-3.45048	nasi	-0.1458627
-4.05254	nasio	-0.1390251
-4.05254	natarajia	-0.1385245
-3.75151	nate	-0.2593099
-4.05254	national	-0.1390251
-4.05254	natumai	-0.1390251
-4.05254	natumeweza	-0.1389866
-4.05254	nawapata	-0.1387556
-4.05254	nawe	-0.1301609
-4.05254	naweza	-0.1389866
-4.05254	naya	-0.09251866
-4.05254	naye	-0.1389866
-4.05254	nayi	-0.1389866
-3.575419	nayo	-0.1387556
-2.35357	nchi	-0.2689342
-2.260148	nchini	-0.430499
-3.75151	ndafu	-0.2579221
-3.05254	ndani	-0.2590845
-3.575419	ndege	-0.1974378
-4.05254	nderemo	-0.1390251
-4.05254	ndini	-0.09251866
-2.690812	ndio	-0.1494617
-4.05254	ndipo	-0.1386401
-4.05254	ndivyo	-0.1390251
-4.05254	ndiye	-0.1389866
-3.575419	ndiyo	-0.1384474
-4.05254	ndizo	-0.1390251
-3.75151	ndogo	-0.09200433
-4.05254	ndoto	-0.1375602
-4.05254	ndovi	-0.09251866
-3.575419	ndugu	-0.2146608
-4.05254	nduniani	-0.09251866
-4.05254	negotiate	-0.09251866
-4.05254	negotiations	-0.09251866
-4.05254	netanyahu	-0.09251866
-4.05254	new	-0.1390251
-3.75151	ngani	-0.1210317
-3.05254	ngozi	-0.1095853
-3.45048	nguvu	-0.1341488
-1.783027	ni	-0.1674144
-3.75151	nia	-0.2422365
-3.75151	niamba	-0.2422365
-4.05254	nicholas	-0.1389481
-4.05254	nicolas	-0.1390251
-4.05254	niende	-0.1383318
-3.75151	niger	-0.212842
-4.05254	nikakuta	-0.1387556
-4.05254	nikapige	-0.1368646
-3.75151	nikasema	-0.1373285
-3.75151	nikiangalia	-0.1362841
-4.05254	nikienda	-0.1383318
-4.05254	nikikutangazia	-0.1373285
-3.75151	nikiripoti	-0.2580765
-4.05254	nikiuchumi	-0.1390251
-4.05254	nikiwa	-0.1201483
-3.75151	niko	-0.1387941
-4.05254	nikubaliane	-0.1201483
-4.05254	nikusema	-0.1370193
-4.05254	nikuulize	-0.1389866
-4.05254	nikuwa	-0.1390251
-3.75151	nikwambie	-0.2585009
-4.05254	nilale	-0.1389096
-3.75151	nilikuwa	-0.1389866
-4.05254	nilimpigia	-0.1388711
-4.05254	niliojiandikishia	-0.1390251
-4.05254	nilipoenda	-0.137869
-4.05254	niliposikia	-0.1364003
-4.05254	nilishagaa	-0.1389866
-4.05254	nilivyo	-0.1390251
-4.05254	nilivyofanya	-0.09251866
-4.05254	niliwasiliana	-0.1201483
-4.05254	nimefurahi	-0.1390251
-4.05254	nimejifunza	-0.1366712
-4.05254	nimelipokea	-0.1301609
-3.75151	nimeona	-0.1300037
-4.05254	nimepata	-0.1388711
-4.05254	nimepiga	-0.1368646
-4.05254	nimeshagaa	-0.1377147
-4.05254	nimewaomba	-0.1385245
-4.05254	nimeweza	-0.1389096
-4.05254	nina	-0.1389481
-4.05254	ninaiambia	-0.1385631
-4.05254	ninaitwa	-0.1390251
-4.05254	ninaongea	-0.1201483
-3.575419	ninapenda	-0.137869
-4.05254	ninapongeza	-0.1386401
-4.05254	ninaridhishwa	-0.1201483
-4.05254	ninavimudu	-0.1301609
-4.05254	ninavyoona	-0.1389481
-4.05254	ninazunguka	-0.1375988
-4.05254	ningependa	-0.1390251
-2.822091	nini	-0.1012551
-3.75151	ninyi	-0.2592714
-4.05254	nipoteza	-0.1368646
-3.75151	nishati	-0.09213297
-3.75151	nitafurahi	-0.1375988
-4.05254	nitakika	-0.1389866
-4.05254	nitamjibu	-0.1374444
-4.05254	niuma	-0.1382162
-4.05254	niyubiko	-0.09251866
-3.14945	nje	-0.1720176
-3.05254	njema	-0.2367555
-3.45048	njia	-0.1772
-4.05254	njiani	-0.1390251
-3.75151	njoo	-0.212842
-2.797267	nne	-0.2160849
-3.75151	noor	-0.2592714
-3.274389	novemba	-0.1807649
-4.05254	nuclear	-0.09251866
-4.05254	nude	-0.1390251
-3.274389	nurdin	-0.1743554
-3.575419	nusu	-0.1287445
-4.05254	nya	-0.09251866
-4.05254	nyadhi	-0.09251866
-3.75151	nyama	-0.1297679
-4.05254	nyamar	-0.1372899
-4.05254	nyanmar	-0.09251866
-3.75151	nyara	-0.2592714
-4.05254	nyengine	-0.1386786
-4.05254	nyerere	-0.1381776
-2.938597	nyingi	-0.1652936
-4.05254	nyingine	-0.1390251
-3.575419	nyuma	-0.06884
-4.05254	nyumba	-0.1390251
-3.75151	nyumbani	-0.1300823
-4.05254	nzima	-0.1364003
-3.35357	nzuri	-0.09974007
-2.637567	obama	-0.217562
-3.75151	obiang	-0.2593099
-3.75151	odoro	-0.1389481
-4.05254	of	-0.1389481
-4.05254	ofisi	-0.1219132
-4.05254	ogwema	-0.09251866
-3.45048	okoit	-0.3184128
-3.575419	okoita	-0.3997628
-3.45048	oktoba	-0.2714085
-4.05254	omar	-0.1390251
-4.05254	omuhoza	-0.09251866
-3.274389	omutata	-0.3599019
-4.05254	ondoka	-0.1387171
-4.05254	one	-0.1389481
-4.05254	ongeza	-0.1389866
-3.45048	ongezeko	-0.4193562
-4.05254	organisation	-0.09251866
-4.05254	outara	-0.1201483
-4.05254	outside	-0.1389866
-4.05254	pa	-0.1388326
-4.05254	pahali	-0.1390251
-3.575419	pakistan	-0.09002714
-4.05254	pakistani	-0.09251866
-4.05254	pakubwa	-0.1387556
-3.098298	pale	-0.1410094
-4.05254	pali	-0.1390251
-3.05254	pamoja	-0.8189977
-4.05254	panapo	-0.1390251
-4.05254	pande	-0.1388326
-4.05254	papa	-0.1389866
-3.35357	paris	-0.2317371
-3.75151	party	-0.212842
-4.05254	paruku	-0.1390251
-4.05254	pasafi	-0.09251866
-4.05254	pata	-0.1385245
-4.05254	patry	-0.09251866
-4.05254	pazuri	-0.1387556
-3.45048	pekee	-0.1398304
-4.05254	peli	-0.1219132
-3.75151	pendekeze	-0.2587322
-3.098298	pendo	-0.3036355
-4.05254	pendwa	-0.1382162
-3.35357	pengine	-0.1351595
-3.75151	pengo	-0.135043
-4.05254	penyesha	-0.1301609
-4.05254	pepe	-0.1386401
-4.05254	pesa	-0.1390251
-4.05254	phillip	-0.1390251
-2.521061	pia	-0.1686579
-3.575419	picha	-0.1354312
-4.05254	pige	-0.1389866
-3.75151	piki	-0.1389481
-4.05254	pikipiki	-0.1390251
-3.14945	pili	-0.1823606
-4.05254	pimples	-0.1377533
-4.05254	pingamizi	-0.1377533
-3.75151	pita	-0.09243297
-4.05254	po	-0.1201483
-4.05254	poa	-0.1382162
-3.35357	pointi	-0.2748599
-4.05254	poishario	-0.1390251
-3.75151	pole	-0.1387556
-3.207442	polisi	-0.08526225
-3.35357	pondo	-0.0911458
-4.05254	pondovi	-0.09251866
-3.75151	popote	-0.1389866
-4.05254	populasio	-0.1277978
-4.05254	pores	-0.1390251
-4.05254	port	-0.1390251
-3.75151	portal	-0.2592714
-3.575419	prince	-0.2058987
-4.05254	prix	-0.1385631
-4.05254	probleme	-0.1387941
-4.05254	prodi	-0.1390251
-4.05254	profesa	-0.1390251
-4.05254	profesi	-0.1387556
-4.05254	protini	-0.09251866
-4.05254	provincial	-0.1372899
-4.05254	punde	-0.1390251
-4.05254	pwani	-0.1219132
-4.05254	qui	-0.09251866
-3.45048	rafiki	-0.09131764
-4.05254	rai	-0.09251866
-3.011147	raia	-1.168795
-2.380442	rais	-0.3702809
-4.05254	raisi	-0.09251866
-4.05254	ramadhan	-0.1390251
-3.75151	rangi	-0.1351207
-4.05254	rasilimali	-0.1386786
-3.274389	rasmi	-0.1527974
-4.05254	raul	-0.1389481
-4.05254	raundi	-0.137869
-4.05254	red	-0.1390251
-4.05254	redbull	-0.1390251
-2.938597	redio	-0.934346
-4.05254	rekodi	-0.1383318
-4.05254	republican	-0.1390251
-4.05254	reuben	-0.1390251
-3.011147	rfi	-0.2305196
-4.05254	ripoti	-0.1219132
-4.05254	robakuki	-0.09251866
-4.05254	robert	-0.1390251
-4.05254	rochongurwa	-0.09251866
-4.05254	rose	-0.1390251
-4.05254	rovers	-0.1390251
-3.45048	rufaa	-0.2530034
-4.05254	rugaba	-0.1390251
-4.05254	ruhusa	-0.1219132
-3.75151	rumbavu	-0.2521698
-4.05254	ruteni	-0.1387171
-4.05254	ruzeo	-0.09251866
-3.207442	rwanda	-0.2212164
-4.05254	sa	-0.09251866
-2.822091	saa	-0.3271916
-2.75151	saba	-0.2963942
-2.561178	sababu	-0.1127038
-3.14945	sabini	-0.9353272
-3.575419	safari	-0.2145837
-3.75151	safi	-0.2404716
-4.05254	safu	-0.1371739
-4.05254	sahara	-0.09251866
-3.575419	sahihi	-0.1478168
-4.05254	saini	-0.1219132
-4.05254	sakorzy	-0.1389866
-3.35357	salaam	-0.1759972
-3.207442	salam	-0.2292113
-3.274389	salama	-0.2570269
-3.45048	saleh	-0.2127563
-3.75151	salum	-0.2593099
-2.508472	sana	-0.2600547
-4.05254	sang	-0.1390251
-4.05254	saratani	-0.1201483
-3.575419	sarekozy	-0.1387171
-4.05254	sarkozy	-0.1389866
-4.05254	sarokzy	-0.1388711
-2.45048	sasa	-0.2136275
-3.35357	sauti	-0.2144755
-3.45048	sawa	-0.148398
-4.05254	sebastian	-0.1390251
-3.207442	sehemu	-0.1672056
-4.05254	sekta	-0.1358579
-4.05254	selemani	-0.1390251
-4.05254	seloun	-0.1390251
-4.05254	selun	-0.1390251
-3.75151	sema	-0.1388711
-3.75151	senate	-0.212842
-2.973359	serikali	-0.2303469
-4.05254	set	-0.1390251
-3.45048	shaban	-0.3185283
-4.05254	shadrack	-0.09251866
-4.05254	shaka	-0.1366712
-4.05254	shambulizi	-0.1382547
-4.05254	shangwe	-0.1201483
-3.75151	shemah	-0.2593099
-3.45048	sherehe	-0.1342656
-2.75151	sheria	-0.2837349
-3.575419	shida	-0.3996087
-4.05254	shimo	-0.1389096
-3.75151	shindikizo	-0.2566461
-4.05254	shirack	-0.09251866
-3.207442	shirika	-0.2749301
-4.05254	shirikiana	-0.1201483
-4.05254	shirikisho	-0.1386786
-3.75151	shomali	-0.1318074
-4.05254	shughuli	-0.1386786
-4.05254	shughulikia	-0.1388326
-3.75151	shukran	-0.134071
-4.05254	shukrani	-0.1377147
-3.575419	shwari	-0.1377918
-3.14945	si	-0.147669
-3.098298	siasa	-0.2706287
-4.05254	sifa	-0.1201483
-3.575419	sifuri	-0.3982586
-3.575419	siha	-0.3996087
-4.05254	sijawahi	-0.1387941
-4.05254	sijui	-0.1318465
-3.45048	sikiliza	-0.3172947
-3.274389	sikio	-0.2376904
-2.822091	siku	-0.1730884
-4.05254	sikuona	-0.1301609
-4.05254	sikupiga	-0.1368646
-4.05254	sikuwa	-0.1201483
-4.05254	silaha	-0.1390251
-3.75151	sima	-0.2589249
-3.011147	simu	-0.1386331
-4.05254	sina	-0.137869
-4.05254	sinachawa	-0.1388326
-3.011147	sio	-0.2755634
-4.05254	sionza	-0.1386016
-4.05254	sir	-0.1390251
-3.098298	sisi	-0.1813324
-2.973359	sita	-0.1693258
-4.05254	sitini	-0.1201483
-4.05254	siwezi	-0.1390251
-4.05254	six	-0.1390251
-4.05254	slur	-0.1390251
-4.05254	stability	-0.1351595
-4.05254	strategically	-0.1301609
-4.05254	studio	-0.1383318
-4.05254	su	-0.1390251
-3.45048	sudan	-0.314584
-3.75151	sugu	-0.2593099
-4.05254	sukari	-0.09251866
-4.05254	sukumwa	-0.1201483
-4.05254	suleiman	-0.1390251
-3.75151	sulemani	-0.1383704
-3.75151	suluhu	-0.1215127
-3.75151	sun	-0.2404716
-4.05254	sungweso	-0.1201483
-3.75151	support	-0.1381776
-3.75151	sura	-0.1380233
-4.05254	swadakta	-0.1389096
-3.35357	swala	-0.1783234
-4.05254	swali	-0.1384475
-2.906412	taarifa	-0.2503133
-3.575419	taasisi	-0.1208311
-3.575419	tabia	-0.2120313
-4.05254	taganyika	-0.1370193
-4.05254	tahadhari	-0.1219132
-2.710117	taifa	-0.2375394
-3.75151	tajiri	-0.1286657
-4.05254	takriban	-0.1385245
-4.05254	takribani	-0.1387941
-4.05254	tamaa	-0.1390251
-3.75151	tangazo	-0.137869
-3.35357	tangu	-0.1802652
-3.75151	tanja	-0.1389096
-2.605382	tano	-0.4037337
-2.409087	tanzania	-0.3362922
-2.822091	tarehe	-0.2638255
-3.207442	tatizo	-0.1604898
-2.938597	tatu	-0.158103
-4.05254	tauli	-0.1375602
-4.05254	tawala	-0.1377919
-4.05254	tax	-0.1390251
-2.906412	tayari	-0.1193725
-4.05254	technologia	-0.09251866
-3.35357	tena	-0.1599585
-4.05254	teondoro	-0.1389866
-4.05254	terms	-0.1387941
-4.05254	thabiti	-0.09251866
-4.05254	thaifu	-0.1390251
-4.05254	thanswi	-0.09251866
-2.906412	thelathini	-1.157176
-4.05254	then	-0.1390251
-4.05254	therathini	-0.1201483
-4.05254	thibitisha	-0.1201483
-4.05254	thomas	-0.09251866
-3.75151	tiba	-0.07338479
-4.05254	tibuku	-0.09251866
-4.05254	tihisin	-0.1390251
-4.05254	timoth	-0.1389866
-4.05254	timothy	-0.1389866
-3.75151	timu	-0.2422365
-2.938597	tisa	-0.1314416
-4.05254	tisaine	-0.1201483
-4.05254	tisaini	-0.1201483
-3.575419	tisini	-0.1786246
-3.45048	tofauti	-0.1193839
-3.75151	toka	-0.1370966
-4.05254	tovuti	-0.1386786
-2.690812	tu	-0.09714449
-4.05254	tuandikie	-0.1387556
-4.05254	tuangalie	-0.1318465
-4.05254	tuanzie	-0.1366712
-4.05254	tuhma	-0.1366712
-4.05254	tuijege	-0.1373671
-4.05254	tujue	-0.1318465
-4.05254	tuka	-0.1301609
-4.05254	tukabili	-0.1301609
-4.05254	tukae	-0.1384475
-4.05254	tukafahamisha	-0.1387171
-4.05254	tukawa	-0.1388326
-3.575419	tukaweza	-0.3998783
-4.05254	tukiangalia	-0.1386016
-4.05254	tukianzia	-0.137869
-4.05254	tukielekea	-0.1366712
-3.75151	tukihama	-0.2589249
-4.05254	tukikutagazia	-0.1373285
-3.75151	tukio	-0.1376374
-4.05254	tukiondoka	-0.1384475
-4.05254	tukishudia	-0.1386016
-4.05254	tukitoka	-0.1383318
-4.05254	tukoke	-0.137869
-4.05254	tukumbuke	-0.1377533
-4.05254	tulimfahamisha	-0.1390251
-4.05254	tulio	-0.1390251
-4.05254	tulipopata	-0.1382162
-4.05254	tumbo	-0.1390251
-2.773787	tume	-0.4615377
-4.05254	tumeamua	-0.1219132
-3.75151	tumegundua	-0.1387556
-4.05254	tumejaliwa	-0.1377533
-4.05254	tumekiona	-0.1375216
-4.05254	tumekutana	-0.1388711
-4.05254	tumekuwa	-0.1390251
-4.05254	tumekwandalia	-0.1385245
-4.05254	tumesema	-0.1383318
-4.05254	tumeweza	-0.1390251
-4.05254	tumpishe	-0.1390251
-4.05254	tumu	-0.1219132
-3.274389	tuna	-0.1378691
-4.05254	tunaamini	-0.1366712
-3.75151	tunaanza	-0.2404716
-4.05254	tunaanze	-0.1201483
-4.05254	tunachotaka	-0.1390251
-4.05254	tunaenda	-0.137869
-3.75151	tunaendelea	-0.1368646
-4.05254	tunaendeleza	-0.1389481
-4.05254	tunafahamiana	-0.1351595
-4.05254	tunahakika	-0.1364003
-3.75151	tunahitaji	-0.2591559
-4.05254	tunaiona	-0.1387556
-4.05254	tunajua	-0.1364003
-4.05254	tunakua	-0.1386401
-4.05254	tunakutangazia	-0.1373285
-4.05254	tunalo	-0.1389866
-4.05254	tunalojukumu	-0.1374444
-4.05254	tunamushukuru	-0.1387941
-4.05254	tunamwomba	-0.09251866
-4.05254	tunaona	-0.1390251
-4.05254	tunaonewa	-0.1390251
-4.05254	tunaowatuma	-0.1318465
-4.05254	tunapaswa	-0.1389866
-4.05254	tunapiga	-0.1389096
-4.05254	tunashauriwa	-0.1390251
-4.05254	tunasikia	-0.1390251
-4.05254	tunaskika	-0.1387556
-4.05254	tunataka	-0.1375216
-4.05254	tunatambua	-0.09251866
-4.05254	tunategemeana	-0.1301609
-4.05254	tunavyoona	-0.1384089
-4.05254	tunawaangalizi	-0.1382162
-4.05254	tunawatarajia	-0.1389096
-4.05254	tunaweka	-0.1387941
-4.05254	tunaweza	-0.1389866
-4.05254	tunayaona	-0.1379462
-4.05254	tunaziita	-0.1390251
-4.05254	tunazungumzia	-0.09251866
-4.05254	tuneweza	-0.1389866
-4.05254	tupate	-0.1386786
-4.05254	tupunguze	-0.09251866
-4.05254	tuseme	-0.1389481
-4.05254	tusilirudie	-0.1388711
-4.05254	tusipotia	-0.1390251
-4.05254	tutaendelea	-0.1390251
-4.05254	tutakuwa	-0.1390251
-4.05254	tutawaletea	-0.09251866
-4.05254	tutembea	-0.1381776
-4.05254	tutumie	-0.1382162
-3.75151	tuweze	-0.1386401
-4.05254	tuwezi	-0.1388326
-3.75151	u	-0.212842
-3.207442	uamuzi	-0.2091275
-4.05254	ubalozini	-0.1390251
-4.05254	ubingwa	-0.1389481
-4.05254	uchafu	-0.1386016
-2.362344	uchaguzi	-0.5882931
-4.05254	uchanguzi	-0.1277978
-4.05254	ucheleweshaji	-0.1375988
-4.05254	uchuguzi	-0.09251866
-3.274389	uchumi	-0.2171576
-3.35357	uchunguzi	-0.2898447
-3.45048	udanganyifu	-0.2112112
-4.05254	uendelee	-0.1390251
-4.05254	ufahamishwe	-0.1201483
-4.05254	ufanye	-0.1377533
-2.876449	ufaransa	-0.1046035
-3.45048	ufisadi	-0.07628471
-4.05254	ufisadii	-0.09251866
-3.14945	ugonjwa	-0.4077163
-4.05254	uhakika	-0.1389481
-4.05254	uhamasishaji	-0.1277978
-3.575419	uharibifu	-0.2038878
-4.05254	uhasimu	-0.1201483
-3.05254	uhuru	-0.2992476
-4.05254	uhusiano	-0.1277978
-3.207442	uingereza	-0.3191313
-4.05254	ujambazi	-0.1387556
-3.575419	ujao	-0.1563659
-3.274389	ujumbe	-0.295612
-3.75151	ujumla	-0.09243297
-4.05254	ujuzi	-0.1277978
-4.05254	ukaamua	-0.1381776
-4.05254	ukaenda	-0.1389866
-4.05254	ukafanya	-0.1387556
-4.05254	ukanywa	-0.1390251
-3.575419	ukapata	-0.119545
-4.05254	ukasambaa	-0.1382162
-4.05254	ukasemaje	-0.1372512
-4.05254	ukatuma	-0.1388326
-4.05254	ukawa	-0.1390251
-4.05254	ukaziangalia	-0.1381776
-3.05254	ukiangalia	-0.1324275
-4.05254	ukichuliwa	-0.1382547
-4.05254	ukiendelea	-0.138486
-4.05254	ukifahamu	-0.1364003
-4.05254	ukikumbuka	-0.1364003
-4.05254	ukikutana	-0.1389866
-4.05254	ukilenga	-0.1388326
-4.05254	ukimaliza	-0.1383704
-4.05254	ukimbizi	-0.1377533
-4.05254	ukimsumbua	-0.1387556
-4.05254	ukimwi	-0.09251866
-3.75151	ukipenda	-0.1300037
-4.05254	ukishamaliza	-0.1387556
-4.05254	ukitaka	-0.1390251
-4.05254	ukitazama	-0.1386016
-4.05254	ukiuganisha	-0.1388711
-3.575419	ukiwa	-0.1387556
-4.05254	ukiwakutanisha	-0.138486
-4.05254	ukizigatia	-0.1389481
-4.05254	ukmco	-0.1389481
-3.45048	uko	-0.1383704
-4.05254	ukombozi	-0.1277978
-3.75151	ukosefu	-0.07995976
-4.05254	ukristu	-0.1201483
-4.05254	ukuaji	-0.1201483
-3.75151	ulaya	-0.08894879
-3.098298	ule	-0.1668225
-3.575419	ulemavu	-0.3887279
-4.05254	ulewala	-0.1382547
-4.05254	uliadaliwa	-0.1389481
-4.05254	uliamua	-0.1381776
-4.05254	ulichokula	-0.1390251
-4.05254	uliimbuka	-0.1301609
-4.05254	ulikuja	-0.1388711
-3.75151	ulikuwa	-0.1200679
-3.75151	ulimwengu	-0.2593099
-3.75151	ulinusurika	-0.2404716
-3.75151	ulinzi	-0.1387171
-4.05254	uliodhaminiwa	-0.1201483
-3.45048	uliofanyika	-0.1372898
-4.05254	ulioko	-0.1383318
-4.05254	uliokokule	-0.1388326
-4.05254	uliokuweko	-0.1390251
-4.05254	uliokuwepo	-0.1390251
-4.05254	uliopigwa	-0.1201483
-4.05254	uliopita	-0.1388711
-4.05254	uliotokea	-0.1387171
-3.75151	ulipelekwa	-0.2581923
-3.75151	ulipitishwa	-0.2404716
-4.05254	ulisoma	-0.1383318
-4.05254	ulitafuta	-0.1388711
-4.05254	ulitilia	-0.1389866
-4.05254	ulitiliwa	-0.1389866
-4.05254	uliwasiliana	-0.1201483
-4.05254	umashuhuli	-0.1387941
-3.45048	umaskini	-0.1068434
-4.05254	umeamua	-0.1389481
-4.05254	umebadilika	-0.1377533
-3.75151	umeleta	-0.2593099
-4.05254	umepangwa	-0.1389096
-4.05254	umepongezwa	-0.1201483
-4.05254	umeripotiwa	-0.1390251
-4.05254	umesi	-0.1370193
-4.05254	umetibisha	-0.1384089
-4.05254	umetoa	-0.1387941
-4.05254	umeungwa	-0.1387941
-4.05254	umezidua	-0.1389866
-2.84842	umoja	-0.6266254
-3.35357	umri	-0.2644265
-4.05254	umufwate	-0.1387556
-4.05254	umuhimu	-0.1277978
-4.05254	umuonyeshe	-0.09251866
-4.05254	umutata	-0.1388326
-4.05254	unaamka	-0.1387941
-4.05254	unadhaminiwa	-0.1201483
-3.45048	unaendelea	-0.2591944
-4.05254	unafahamu	-0.1364003
-4.05254	unahudhuriwa	-0.1201483
-4.05254	unaiambiaje	-0.1386016
-4.05254	unainuka	-0.09251866
-4.05254	unaitwa	-0.1388711
-3.575419	unajiunga	-0.3998398
-3.575419	unajua	-0.1380233
-4.05254	unakula	-0.1387556
-4.05254	unakuwa	-0.1389096
-4.05254	unalala	-0.1390251
-3.75151	unalingana	-0.1199473
-4.05254	unamalizwa	-0.1301609
-4.05254	unaofanyika	-0.1366712
-3.75151	unaona	-0.1386016
-4.05254	unaongeza	-0.1389866
-4.05254	unaongezeka	-0.09251866
-4.05254	unaosema	-0.1301609
-4.05254	unaotarajiwa	-0.1389866
-4.05254	unapata	-0.1387556
-4.05254	unapofanya	-0.1387556
-3.575419	unapokuwa	-0.1350819
-4.05254	unapokwenda	-0.1389866
-4.05254	unapomwambia	-0.1389866
-4.05254	unapongeza	-0.1390251
-4.05254	unapoongeza	-0.1389481
-4.05254	unasaidia	-0.1377533
-4.05254	unasema	-0.1380619
-4.05254	unatakiwa	-0.1387171
-4.05254	unatangaza	-0.138486
-3.75151	unatarajiwa	-0.1366325
-4.05254	unatoka	-0.1373671
-4.05254	unauliza	-0.09251866
-4.05254	unavimudu	-0.1389481
-3.75151	unavuta	-0.2593099
-4.05254	unavyokula	-0.1387556
-4.05254	unawafanyia	-0.1383704
-3.14945	unaweza	-0.1657803
-4.05254	unawezakuwa	-0.1390251
-4.05254	undp	-0.09251866
-4.05254	ungana	-0.1201483
-3.75151	ungependa	-0.1379848
-4.05254	ungewapatia	-0.1384089
-3.575419	united	-0.09243297
-4.05254	ununuzi	-0.1277978
-4.05254	unyanyashaji	-0.1277978
-3.35357	uongozi	-0.1708249
-4.05254	up	-0.1388711
-3.05254	upande	-0.334894
-3.75151	upigaji	-0.1255409
-3.45048	upinzani	-0.1199071
-4.05254	upo	-0.1301609
-4.05254	upuzi	-0.1370193
-3.75151	upya	-0.2504841
-4.05254	urafiki	-0.1387171
-4.05254	uraia	-0.09251866
-3.05254	urais	-0.2529989
-4.05254	uraiya	-0.1388326
-3.575419	usajili	-0.3995702
-3.274389	usalama	-0.147411
-4.05254	usawi	-0.1389866
-4.05254	ushahidi	-0.09251866
-4.05254	ushauri	-0.1301609
-4.05254	ushindani	-0.1389481
-3.75151	ushindi	-0.2554828
-4.05254	ushirika	-0.1201483
-4.05254	usiende	-0.1383318
-4.05254	usiku	-0.1390251
-4.05254	usimamizi	-0.1277978
-3.75151	ustawi	-0.1277188
-4.05254	usuda	-0.09251866
-4.05254	usukani	-0.1372512
-3.75151	usumbufu	-0.1276398
-3.575419	utajiri	-0.2038878
-4.05254	utakao	-0.1390251
-3.45048	utakuta	-0.1361291
-3.75151	utakuwa	-0.2591174
-4.05254	utapita	-0.1390251
-3.75151	utaratibu	-0.1277583
-4.05254	utasaidia	-0.1388326
-4.05254	utatuma	-0.1389866
-3.45048	utawala	-0.4108312
-4.05254	utekelezaji	-0.1318465
-4.05254	utueleze	-0.1387556
-4.05254	utulivu	-0.09251866
-4.05254	utunaiona	-0.1387556
-4.05254	uungwaji	-0.1388711
-3.75151	uwanja	-0.1271259
-3.575419	uwazi	-0.2062919
-3.45048	uwe	-0.4031817
-4.05254	uweke	-0.1390251
-3.575419	uwepo	-0.3887279
-3.75151	uweze	-0.1386786
-3.75151	uwezo	-0.1083741
-4.05254	uwile	-0.1389096
-3.75151	uzalishaji	-0.2481211
-3.75151	uzito	-0.09217584
-4.05254	vemton	-0.1390251
-4.05254	verto	-0.1377533
-3.75151	vi	-0.09118876
-4.05254	viatamu	-0.1390251
-4.05254	viazi	-0.1376761
-4.05254	vibali	-0.1384089
-3.274389	victor	-0.1687105
-3.75151	vifo	-0.1363615
-4.05254	vifungu	-0.1376761
-4.05254	vigumu	-0.1390251
-3.75151	vijana	-0.1377147
-3.35357	vijavyo	-0.3360321
-3.75151	vijijini	-0.212842
-3.274389	vikali	-0.2308223
-4.05254	vikitware	-0.1389481
-4.05254	viko	-0.09251866
-3.75151	vikosi	-0.2579994
-2.876449	vile	-0.1208098
-4.05254	vilitumika	-0.1377147
-4.05254	vilivyo	-0.1201483
-3.75151	vilivyokutana	-0.212842
-4.05254	vimbaya	-0.1384089
-4.05254	vimembaki	-0.138486
-3.75151	vina	-0.212842
-4.05254	vinahitaji	-0.1390251
-3.75151	vinane	-0.212842
-4.05254	vinategemea	-0.1385245
-4.05254	vinatengemea	-0.1385245
-3.75151	vinatoka	-0.1298072
-4.05254	vinatokea	-0.09251866
-3.75151	vingi	-0.2579994
-3.75151	vingunguti	-0.1387171
-4.05254	vinne	-0.09251866
-4.05254	viole	-0.1390251
-4.05254	viombo	-0.1376761
-2.906412	viongozi	-0.4422588
-3.575419	vipi	-0.08224645
-4.05254	vipo	-0.1201483
-4.05254	virutubishi	-0.09251866
-4.05254	virutubisho	-0.09251866
-3.75151	visa	-0.2590789
-3.14945	vita	-0.1755792
-4.05254	vitamani	-0.1387556
-3.45048	vitambulisho	-0.3083632
-3.45048	vitamini	-0.1199473
-3.75151	vitano	-0.2591944
-3.75151	vitatu	-0.1384089
-3.575419	vitaweza	-0.3998013
-3.75151	vitendea	-0.2586937
-4.05254	vitendo	-0.1376761
-3.75151	viti	-0.1389481
-4.05254	vitisho	-0.09251866
-4.05254	vitongoji	-0.1384089
-4.05254	vitu	-0.1377533
-3.575419	vituo	-0.1368646
-4.05254	vitutubisho	-0.1381005
-3.35357	viwanda	-0.1856197
-3.575419	viwanja	-0.2127676
-4.05254	viwe	-0.1390251
-4.05254	vizavyo	-0.1389481
-3.274389	vizazi	-0.4187748
-2.84842	vizuri	-0.1278027
-3.575419	vurugu	-0.08981168
-2.496238	vya	-0.189581
-3.14945	vyakula	-0.1913615
-2.876449	vyama	-0.497074
-3.75151	vyema	-0.1387171
-4.05254	vyenye	-0.1390251
-3.75151	vyeo	-0.2592329
-4.05254	vyetu	-0.1301609
-3.75151	vyeye	-0.1389481
-4.05254	vyombo	-0.1376761
-3.45048	vyote	-0.1470248
-1.591642	wa	-0.2291074
-4.05254	waachane	-0.1201483
-4.05254	waachiliwe	-0.1387941
-3.45048	waafrika	-0.2997267
-3.35357	waandishi	-0.3371712
-4.05254	waangalie	-0.1389866
-4.05254	waangalizi	-0.1277978
-3.45048	waasi	-0.1410959
-3.207442	wabunge	-0.1210131
-4.05254	waccm	-0.1375602
-4.05254	wachache	-0.1377147
-4.05254	wachambuzi	-0.1277978
-4.05254	wachukue	-0.1390251
-4.05254	waendelee	-0.1390251
-3.575419	wafanya	-0.3993005
-4.05254	wafanyakazi	-0.1301609
-3.35357	wafanyikazi	-0.1292565
-3.45048	wafaransa	-0.1943012
-4.05254	wafuasi	-0.1277978
-4.05254	wafungwa	-0.1390251
-3.35357	wagombea	-0.1377147
-4.05254	wagonjwa	-0.1384089
-3.575419	wahito	-0.2145452
-4.05254	waishio	-0.1385631
-3.098298	waislamu	-0.1484857
-4.05254	wajeshi	-0.1384089
-4.05254	wajua	-0.1386786
-3.575419	wakae	-0.1277188
-4.05254	wakafanya	-0.1377919
-4.05254	wakajirudi	-0.1389481
-3.575419	wakaona	-0.2113714
-4.05254	wakapoteza	-0.09251866
-4.05254	wakasahau	-0.1388711
-2.690812	wakati	-0.1880328
-4.05254	wakawakilishe	-0.09251866
-2.773787	wake	-0.1085008
-4.05254	wakiasiri	-0.1389866
-4.05254	wakifanye	-0.09251866
-4.05254	wakigeni	-0.09251866
-4.05254	wakili	-0.1388326
-4.05254	wakimbizi	-0.1384089
-3.575419	wakipatiwa	-0.2152772
-4.05254	wakipiga	-0.1368646
-4.05254	wakipindupindu	-0.1351595
-3.75151	wakipinga	-0.09226157
-4.05254	wakirsto	-0.1390251
-4.05254	wakisema	-0.09251866
-4.05254	wakishindwa	-0.1389096
-4.05254	wakitokea	-0.137869
-3.274389	wakiwa	-0.1748568
-4.05254	wakiwasiri	-0.1389866
-3.575419	wakiwemo	-0.1367873
-3.14945	wako	-0.05840213
-4.05254	wakosajinai	-0.1389866
-3.274389	wakristo	-0.1155013
-4.05254	wakuanza	-0.1389866
-4.05254	wakulengwa	-0.1384475
-3.75151	wala	-0.1389866
-4.05254	walale	-0.1390251
-3.14945	wale	-0.2503335
-4.05254	waliandamana	-0.1389866
-4.05254	waliangalia	-0.1388711
-4.05254	walianza	-0.1390251
-4.05254	walichotumwa	-0.1390251
-4.05254	walichuana	-0.1388326
-4.05254	walifanya	-0.1377533
-4.05254	waliiteka	-0.1389866
-4.05254	walijiandikisha	-0.1370193
-4.05254	walikamatwa	-0.1390251
-3.75151	waliko	-0.2590019
-3.575419	walikuwa	-0.1200679
-3.75151	walikuwepo	-0.1348876
-4.05254	walinitafuta	-0.137869
-4.05254	walioadhirika	-0.1201483
-3.75151	walioambukizwa	-0.2591174
-4.05254	walioathirika	-0.1201483
-4.05254	waliofanikisha	-0.1390251
-3.75151	waliofanya	-0.2592329
-3.75151	waliofariki	-0.2554828
-4.05254	walioingia	-0.09251866
-3.575419	waliojiandikisha	-0.1335646
-4.05254	waliojitokeza	-0.1389866
-4.05254	waliokuwa	-0.1389866
-4.05254	waliokuwepo	-0.1387941
-3.75151	waliona	-0.2567236
-4.05254	waliopaswa	-0.1383318
-4.05254	waliotoa	-0.1388711
-3.75151	walipata	-0.1388711
-4.05254	walipokuwa	-0.09251866
-4.05254	walipoteza	-0.1387941
-4.05254	walitegemea	-0.1387556
-3.75151	walitoka	-0.09118876
-4.05254	walivyo	-0.1201483
-4.05254	walivyovaa	-0.1389481
-4.05254	wamajunga	-0.09251866
-4.05254	wamama	-0.1277978
-4.05254	wamapoondoka	-0.09251866
-4.05254	wamarekani	-0.1390251
-4.05254	wambunge	-0.09251866
-4.05254	wame	-0.09251866
-4.05254	wameambukizwa	-0.09251866
-3.75151	wameanza	-0.1389866
-4.05254	wamefikia	-0.1384089
-4.05254	wamejiandikisha	-0.1301609
-3.75151	wamejitokeza	-0.2586551
-4.05254	wamekamatwa	-0.1201483
-4.05254	wamekerwa	-0.09251866
-4.05254	wamelazwa	-0.1351595
-3.75151	wamepiga	-0.1367099
-4.05254	wameripotiwa	-0.1389866
-3.35357	wamesema	-0.1784791
-4.05254	wamesilimu	-0.1377533
-4.05254	wametiwa	-0.1390251
-4.05254	wameuwawa	-0.1389481
-3.75151	wamewapa	-0.1372898
-4.05254	wamuzi	-0.1277978
-4.05254	wamwarifu	-0.1390251
-3.35357	wana	-0.1377147
-4.05254	wanaamua	-0.1390251
-4.05254	wanaanza	-0.1383704
-3.75151	wanachama	-0.1277188
-4.05254	wanacheza	-0.1390251
-4.05254	wanaelewa	-0.1389481
-4.05254	wanafuga	-0.1375988
-4.05254	wanafwatilia	-0.1386401
-3.35357	wanahabari	-0.08860316
-4.05254	wanahofia	-0.1366712
-4.05254	wanaishi	-0.1384475
-4.05254	wanajua	-0.1383704
-4.05254	wanakaa	-0.1201483
-3.575419	wanakua	-0.119545
-4.05254	wanakula	-0.1387556
-4.05254	wanakuwa	-0.1381776
-4.05254	wanalaumiana	-0.1364003
-2.906412	wananchi	-0.2862715
-4.05254	wanaofaidika	-0.1201483
-4.05254	wanaofanya	-0.1383704
-4.05254	wanaogea	-0.1381005
-4.05254	wanaogombea	-0.1386786
-4.05254	wanaogopa	-0.09251866
-4.05254	wanaomchagua	-0.1372512
-4.05254	wanaopigana	-0.1385245
-4.05254	wanaoshikiliwa	-0.1201483
-4.05254	wanaoshindana	-0.1383704
-3.75151	wanaostahili	-0.2592329
-4.05254	wanaowania	-0.1388326
-4.05254	wanapinduana	-0.1387556
-3.75151	wanapokuwa	-0.1199071
-4.05254	wanasema	-0.1366712
-3.75151	wanasiasa	-0.1387171
-4.05254	wanasinikiza	-0.1390251
-4.05254	wanatajwa	-0.1351595
-4.05254	wanataka	-0.1389866
-3.75151	wanatakiwa	-0.1389866
-3.75151	wanatarajia	-0.2574972
-4.05254	wanatarajiwa	-0.1390251
-4.05254	wanatukia	-0.1351595
-4.05254	wanavita	-0.1390251
-4.05254	wanavyochukua	-0.1389481
-4.05254	wanawake	-0.09251866
-3.45048	wanaweza	-0.1382162
-4.05254	wanayapenyesha	-0.1390251
-4.05254	wanga	-0.1390251
-3.35357	wangu	-0.08478287
-3.45048	wanne	-0.1480551
-4.05254	wanyama	-0.09251866
-4.05254	wanzao	-0.1277978
-3.274389	wao	-0.2034182
-4.05254	waonane	-0.1390251
-3.75151	wapi	-0.0908879
-3.14945	wapiga	-0.9520435
-4.05254	wapige	-0.1368646
-4.05254	wapingani	-0.1383318
-3.575419	wapinzani	-0.09191856
-4.05254	wapo	-0.1201483
-4.05254	washindi	-0.09251866
-4.05254	washiriki	-0.1277978
-4.05254	wasijitokeze	-0.09251866
-4.05254	wasikilizaji	-0.1390251
-4.05254	wasimamizi	-0.1277978
-3.75151	wasiojiweza	-0.212842
-4.05254	wasiwasi	-0.1351595
-4.05254	wasiwe	-0.1390251
-4.05254	wasiyapate	-0.1388711
-4.05254	wasomi	-0.1377533
-3.75151	wataadhibiwa	-0.2504841
-3.75151	wataalam	-0.1382933
-4.05254	watafanya	-0.1383704
-4.05254	wataibuka	-0.1201483
-4.05254	watakambiliana	-0.1201483
-4.05254	watakao	-0.1390251
-3.75151	watakaobaki	-0.09209009
-4.05254	watakaogundulika	-0.1385245
-4.05254	watakapofanya	-0.1375216
-4.05254	watakuuliza	-0.1390251
-4.05254	watakuwa	-0.1201483
-4.05254	watakwenda	-0.1351595
-4.05254	watangazaji	-0.1383318
-4.05254	watano	-0.1377533
-3.011147	watanzania	-0.09914791
-4.05254	wataondoka	-0.1389481
-3.75151	watara	-0.212842
-4.05254	watarajie	-0.1384089
-3.75151	watategua	-0.1387941
-3.575419	watatu	-0.1687962
-4.05254	wataumana	-0.1201483
-4.05254	watawajibika	-0.1389481
-4.05254	watawapa	-0.1387941
-3.45048	watera	-0.3755521
-4.05254	watere	-0.09251866
-4.05254	watoto	-0.09251866
-2.304352	watu	-0.1655474
-4.05254	watuhumiwa	-0.1351595
-4.05254	watuletee	-0.1386401
-4.05254	watuma	-0.1386786
-4.05254	watuwengi	-0.1390251
-4.05254	waugonjwa	-0.1390251
-3.75151	waumini	-0.1389866
-4.05254	wavuti	-0.09251866
-4.05254	wawakilishi	-0.1377533
-4.05254	wawanyang??anye	-0.1386016
-3.75151	wawili	-0.1348099
-2.876449	waziri	-0.8539668
-4.05254	wazuia	-0.1386016
-4.05254	wazungumuze	-0.1389096
-4.05254	webber	-0.1390251
-3.75151	website	-0.1212322
-2.938597	wengi	-0.1340047
-2.822091	wengine	-0.1849023
-3.45048	wenye	-0.1944939
-3.14945	wenyewe	-0.2008837
-3.75151	wenyi	-0.2404716
-3.75151	wenzangu	-0.08955299
-4.05254	westbromich	-0.1390251
-4.05254	western	-0.1390251
-4.05254	westham	-0.1389481
-2.938597	wetu	-0.1239671
-3.45048	wewe	-0.130043
-4.05254	weze	-0.1390251
-4.05254	wibi	-0.09251866
-4.05254	wigan	-0.1201483
-3.45048	wiki	-0.3150499
-4.05254	wilaya	-0.1371739
-4.05254	wilprod	-0.1390251
-3.575419	wingi	-0.07105084
-3.274389	wizara	-0.473763
-3.274389	wote	-0.07819256
-4.05254	wrinkles	-0.1387171
-4.05254	www.rfikiswahili	-0.09251866
-1.412059	ya	-0.2005998
-3.05254	yaani	-0.1091089
-4.05254	yachunguzwe	-0.1384475
-4.05254	yaendayo	-0.1390251
-4.05254	yaendelea	-0.1389866
-4.05254	yajayo	-0.09251866
-4.05254	yakasababisha	-0.1389096
-2.773787	yake	-0.08656348
-4.05254	yakidiplomasia	-0.1389481
-4.05254	yakijeshi	-0.1219132
-4.05254	yakishagaa	-0.1201483
-4.05254	yakiwemo	-0.1219132
-3.575419	yako	-0.206174
-4.05254	yakuunge	-0.1388711
-3.575419	yale	-0.2149691
-4.05254	yali	-0.09251866
-4.05254	yaliahidiwa	-0.1389096
-4.05254	yaliingia	-0.1382547
-4.05254	yalikuwa	-0.1390251
-3.575419	yaliofanywa	-0.3810785
-3.45048	yaliojiri	-0.2719659
-4.05254	yalioko	-0.1318465
-4.05254	yaliokuwa	-0.1389866
-4.05254	yaliokuwepo	-0.1387171
-4.05254	yalioshababisha	-0.1389866
-4.05254	yaliotokea	-0.1387556
-4.05254	yalishuhudiwa	-0.1351595
-4.05254	yameanza	-0.1387941
-4.05254	yamefanyika	-0.09251866
-3.75151	yamefutilia	-0.2590789
-4.05254	yamekuwa	-0.1390251
-4.05254	yamewashawishi	-0.1386016
-4.05254	yamewavuta	-0.09251866
-4.05254	yameweza	-0.1389866
-4.05254	yanaanza	-0.09251866
-4.05254	yanaingia	-0.1387171
-4.05254	yanakaa	-0.1387941
-4.05254	yanakambili	-0.1371353
-4.05254	yanapaswa	-0.1390251
-4.05254	yanapoungua	-0.1387171
-4.05254	yanasaidia	-0.1364003
-3.75151	yanaweza	-0.1387171
-4.05254	yanawezakutatulika	-0.09251866
-4.05254	yanayo	-0.1390251
-4.05254	yanayojiri	-0.09251866
-4.05254	yanayolenga	-0.1390251
-3.14945	yangu	-0.06936105
-4.05254	yani	-0.1381776
-3.207442	yao	-0.1038729
-4.05254	yapo	-0.09251866
-3.75151	yasiotibika	-0.1199875
-4.05254	yatakayo	-0.1390251
-3.75151	yatasaidia	-0.2591944
-4.05254	yatashinikiza	-0.09251866
-3.75151	yatima	-0.212842
-4.05254	yatupelekea	-0.1366712
-4.05254	yaweze	-0.1390251
-4.05254	yenye	-0.1390251
-3.75151	yenyewe	-0.09243297
-2.938597	yetu	-0.1793701
-3.35357	yeye	-0.119102
-3.75151	yeyote	-0.1381005
-4.05254	ykatagazwa	-0.1384089
-3.35357	yote	-0.2294369
-3.75151	your	-0.1389866
-4.05254	yuko	-0.1385245
-4.05254	yuku	-0.1387941
-3.45048	yule	-0.1254217
-4.05254	yupi	-0.09251866
-4.05254	yupo	-0.1389866
-4.05254	yvakula	-0.1389866
-2.133462	za	-0.109368
-4.05254	zack	-0.1390251
-2.710117	zaidi	-0.4280013
-3.75151	zain	-0.09118876
-3.05254	zake	-0.6877583
-3.45048	zamani	-0.09178986
-3.274389	zambia	-0.08942362
-4.05254	zanzibar	-0.1301609
-3.75151	zao	-0.1352372
-3.75151	zenye	-0.138563
-3.575419	zetu	-0.3534488
-4.05254	ziamke	-0.1301609
-3.14945	ziara	-0.2724606
-3.75151	ziarani	-0.1327455
-4.05254	ziende	-0.1388711
-4.05254	zifanyike	-0.1351595
-3.75151	zijazo	-0.212842
-4.05254	zikawa	-0.1390251
-4.05254	zikiwa	-0.1390251
-3.35357	zile	-0.1335257
-4.05254	zilikuwa	-0.1388711
-4.05254	zilisikika	-0.1377533
-4.05254	zilivyokuwa	-0.09251866
-4.05254	zilizinduliwa	-0.1388326
-4.05254	zilizochukuliwa	-0.1201483
-4.05254	zilizopita	-0.1385631
-4.05254	zime	-0.09251866
-4.05254	zimeamuru	-0.1371353
-4.05254	zimeanza	-0.1387556
-4.05254	zimeikumba	-0.1371353
-4.05254	zimejitokeza	-0.1389866
-4.05254	zimelaani	-0.1388326
-4.05254	zimeongezwa	-0.1301609
-4.05254	zimepunguzwa	-0.1386016
-4.05254	zimeshaimbiwa	-0.1386786
-4.05254	zimesharipoti	-0.1351595
-4.05254	zimeshindwa	-0.09251866
-4.05254	zimetoka	-0.1389866
-4.05254	zimwendee	-0.1388326
-3.575419	zina	-0.1389481
-4.05254	zinaanua	-0.1388711
-4.05254	zinaanza	-0.1389866
-4.05254	zinahesabiwa	-0.09251866
-4.05254	zinahitajika	-0.1386786
-4.05254	zinaita	-0.1390251
-4.05254	zinajumuisha	-0.1389481
-3.75151	zinapata	-0.1201081
-4.05254	zinapigwa	-0.1351595
-4.05254	zinapita	-0.1390251
-4.05254	zinashindwa	-0.1389866
-4.05254	zinataka	-0.1389866
-3.75151	zinatarajiwa	-0.2593099
-3.75151	zinaweza	-0.1389866
-4.05254	zinazochukuliwa	-0.1301609
-4.05254	zinazohusika	-0.1390251
-4.05254	zinazohusu	-0.1201483
-4.05254	zinazoletwa	-0.1201483
-4.05254	zinazosafiri	-0.1351595
-3.45048	zingine	-0.1349524
-3.75151	zitaimbiwa	-0.1386786
-4.05254	zitakazofuatiwa	-0.1382547
-4.05254	zitakazomwezesha	-0.1366712
-4.05254	zitakuwa	-0.1390251
-4.05254	ziwa	-0.1390251
-3.14945	zoezi	-0.3637252
-4.05254	zorah	-0.1390251
-3.575419	zote	-0.1357415
-4.05254	zugumza	-0.1390251
-3.575419	zuhra	-0.3998783
-4.05254	zurfikar	-0.09251866

\2-grams:
-0.2082759	<UNK> </s>
-1.669313	<UNK> hatua	-0.07088535
-1.669313	<UNK> hii	-0.1405258
-2.185498	<UNK> hususan
-2.185498	<UNK> inalenga
-2.185498	<UNK> je
-2.185498	<UNK> kitu
-1.669313	<UNK> na
-2.185498	<UNK> nikusema
-1.669313	<UNK> tumegundua
-2.185498	<UNK> wafaransa
-2.185498	<UNK> wataadhibiwa
-2.185498	<UNK> za
-0.3470938	<laughter> </s>
-0.08297423	<music> </s>
-2.225007	<music> dada
-2.225007	<music> mimi
-2.225007	<music> msikilizaji
-2.225007	<music> naam
-2.225007	<music> rais
-2.225007	<music> saba
-2.225007	<music> sikiliza
-2.225007	<music> yaliojiri
-1.661623	<s> <UNK>	0.2373012
-3.621812	<s> <laughter>
-1.64459	<s> <music>	0.2514358
-2.156473	<s> aa
-3.105627	<s> aaa
-3.621812	<s> aah
-3.621812	<s> abu
-3.621812	<s> achukue
-2.802927	<s> afisa	-0.007086869
-3.621812	<s> afrika
-3.621812	<s> afya
-3.105627	<s> agenda	0.1108158
-3.621812	<s> akachukua
-3.621812	<s> akaniambia
-3.621812	<s> akielezea
-3.621812	<s> akikabiliwa
-3.105627	<s> akitarajiwa	0.1108158
-3.621812	<s> akiwa
-3.621812	<s> akizungumza
-3.621812	<s> alichanguliwa
-3.621812	<s> alikamatwa
-3.621812	<s> alimuuliza
-3.621812	<s> aliona
-3.621812	<s> alitutumia
-3.621812	<s> aliyeteuliwa
-3.621812	<s> ama
-3.621812	<s> amani
-3.105627	<s> ambalo
-1.980382	<s> ambao	-0.0320549
-2.450768	<s> ambapo
-3.621812	<s> ambavyo
-3.621812	<s> ambaye
-3.621812	<s> ambayo
-3.621812	<s> ambazo
-3.621812	<s> ameiomba
-3.621812	<s> amejigaba
-3.105627	<s> amejigamba	0.1108158
-3.621812	<s> amekiita
-3.621812	<s> amekuwa
-3.621812	<s> amelaani
-3.621812	<s> amemtaja
-3.621812	<s> ameonekana
-3.621812	<s> amepata
-3.621812	<s> amepongeza
-2.105321	<s> amesema	0.004811464
-3.621812	<s> ameshtumu
-3.621812	<s> ameuchukua
-3.621812	<s> ameviambia
-3.621812	<s> ameweka
-3.621812	<s> ana
-3.621812	<s> anaelezea
-3.621812	<s> anakupasha
-3.621812	<s> anaona
-3.621812	<s> anaongoza
-3.621812	<s> anasema
-3.621812	<s> anataka
-3.105627	<s> anatarajiwa
-3.621812	<s> and
-3.621812	<s> asalama
-3.621812	<s> atakuwa
-3.105627	<s> au
-3.621812	<s> azigatie
-2.663963	<s> baada	0.8141496
-2.802927	<s> baadhi	0.9859754
-3.105627	<s> bado
-3.621812	<s> bahati
-3.621812	<s> balanced
-3.621812	<s> basi
-3.105627	<s> bi
-3.621812	<s> boo
-3.621812	<s> bosnia
-3.621812	<s> burundi
-3.105627	<s> bwana	-0.1076428
-3.621812	<s> castro
-3.621812	<s> cha
-3.621812	<s> chama
-3.621812	<s> changamoto
-3.621812	<s> chini
-3.621812	<s> chombo
-3.621812	<s> dar
-3.621812	<s> david
-3.621812	<s> dharuba
-2.802927	<s> dhidi	0.7414232
-3.621812	<s> diplomasia
-3.621812	<s> dokta
-3.621812	<s> dotcom
-3.105627	<s> dunia	-0.1147377
-3.621812	<s> duru
-3.621812	<s> edwin
-2.523051	<s> ee
-3.621812	<s> eeh
-3.105627	<s> elfu	0.08187782
-3.621812	<s> emanuel
-3.621812	<s> enona
-3.621812	<s> eu
-3.621812	<s> fanya
-3.621812	<s> fernado
-3.621812	<s> ffu
-3.621812	<s> formula
-3.621812	<s> frg
-3.621812	<s> fulani
-3.621812	<s> furaha
-3.621812	<s> george
-2.802927	<s> habari	-0.04111679
-3.621812	<s> hadi
-3.621812	<s> haikuwa
-3.621812	<s> hakieleweki
-3.621812	<s> hakuna
-2.663963	<s> halafu
-2.214465	<s> hali	-0.0489191
-3.105627	<s> hapa
-2.802927	<s> hapo
-3.621812	<s> hasa
-2.105321	<s> hata	-0.02652438
-3.621812	<s> hatua
-3.621812	<s> haya
-3.621812	<s> hebu
-2.156473	<s> hii	0.03431455
-3.621812	<s> hili
-3.621812	<s> hivi
-3.621812	<s> hivo
-3.621812	<s> hivyo
-3.105627	<s> hofu	-0.06245216
-3.621812	<s> huenda
-3.621812	<s> hufanya
-2.802927	<s> huku
-3.621812	<s> hususan
-3.105627	<s> huwa
-3.105627	<s> huyu	-0.1028476
-3.621812	<s> ibara
-2.802927	<s> idadi	0.361212
-2.663963	<s> idhaa	0.9438435
-3.621812	<s> ifaidikie
-3.621812	<s> igawaje
-3.621812	<s> ikaonekana
-3.621812	<s> ikitarajia
-3.105627	<s> ikiwa	0.2735259
-3.621812	<s> iko
-3.621812	<s> ikumbukwe
-3.621812	<s> ila
-3.621812	<s> ile
-2.156473	<s> ili
-3.621812	<s> ilikujua
-3.621812	<s> ilikupinga
-3.621812	<s> iliokuwa
-3.621812	<s> iliuweze
-3.621812	<s> imefanya
-3.621812	<s> imeimbuka
-3.621812	<s> imekosoa
-3.621812	<s> imesema
-3.621812	<s> imetimia
-3.621812	<s> in
-2.663963	<s> ina
-3.621812	<s> inabidi
-3.621812	<s> inadaiwa
-3.621812	<s> inaeleza
-3.621812	<s> inahofiwa
-3.621812	<s> inakuja
-3.621812	<s> inakutangazia
-3.621812	<s> inakuwa
-3.621812	<s> inakwenda
-3.621812	<s> inamatumaini
-3.621812	<s> inasema
-3.621812	<s> inategemewa
-3.621812	<s> inatoa
-3.621812	<s> inawezekana
-3.621812	<s> inayokutangazia
-3.621812	<s> india
-3.621812	<s> ingawaje
-3.621812	<s> ita
-3.621812	<s> itaandaliwa
-3.105627	<s> itachangia	0.1108158
-3.621812	<s> itacheleweshwa
-3.621812	<s> itakuwa
-3.621812	<s> itatimiza
-3.621812	<s> itazidi
-2.802927	<s> iweze	0.09908959
-3.621812	<s> jakaya
-3.621812	<s> jamii
-3.621812	<s> japo
-3.621812	<s> je
-3.105627	<s> jeje
-3.621812	<s> jeografia
-3.621812	<s> jeshi
-3.105627	<s> jina	0.1593002
-3.621812	<s> joe
-3.621812	<s> john
-3.621812	<s> jua
-3.105627	<s> julian	0.006199665
-3.621812	<s> juma
-3.621812	<s> jumuiya
-3.105627	<s> juu
-3.621812	<s> kaa
-2.663963	<s> kabla	0.0616047
-2.156473	<s> kama	-0.07581204
-3.621812	<s> kampeni
-3.105627	<s> karibu	-0.008138492
-3.621812	<s> kata
-3.621812	<s> kati
-2.214465	<s> katika
-3.621812	<s> kazi
-3.621812	<s> kila
-3.105627	<s> kilicho	0.006199665
-3.621812	<s> kimeniuma
-3.621812	<s> kina
-3.621812	<s> kinakuwa
-3.621812	<s> kinatakiwa
-3.621812	<s> kinatoka
-3.621812	<s> kinyaganyiro
-3.105627	<s> kiongozi
-3.621812	<s> kipindi
-3.621812	<s> kitatuwezesha
-3.621812	<s> kitendo
-2.802927	<s> kitu
-3.621812	<s> kizuri
-3.621812	<s> kouruma
-3.621812	<s> ku
-3.621812	<s> kuangalia
-3.621812	<s> kudumisha
-3.105627	<s> kuenda
-2.802927	<s> kuendelea	-0.02267877
-3.621812	<s> kufaindisha
-3.621812	<s> kufanyika
-2.802927	<s> kufuatia
-3.621812	<s> kuhakikisha
-3.621812	<s> kuhesabiwa
-3.105627	<s> kuimbuka	0.1108158
-3.621812	<s> kuingia
-3.621812	<s> kuingilia
-3.621812	<s> kuiongoza
-3.621812	<s> kujaribu
-3.621812	<s> kujenga
-3.621812	<s> kukubaliana
-3.621812	<s> kula
-3.621812	<s> kule
-3.621812	<s> kuleta
-3.621812	<s> kulikochangiwa
-3.621812	<s> kulikuwa
-3.105627	<s> kulingana	0.2735259
-2.663963	<s> kumbuka	0.04264636
-3.621812	<s> kumeshuhudiwa
-3.621812	<s> kumradhi
-2.663963	<s> kuna
-3.621812	<s> kunacho
-3.105627	<s> kunaweka	0.1108158
-3.621812	<s> kundi
-3.621812	<s> kuondoka
-3.621812	<s> kuondolewa
-3.621812	<s> kuongeza
-3.621812	<s> kupata
-3.621812	<s> kupiga
-3.105627	<s> kupinga	0.1108158
-3.621812	<s> kupitia
-3.621812	<s> kupoteza
-3.621812	<s> kuripotiwa
-3.621812	<s> kusabisha
-2.802927	<s> kusimama	0.238327
-3.621812	<s> kutafuta
-2.523051	<s> kutoka
-2.802927	<s> kutokana	0.3292467
-3.621812	<s> kutosheleza
-3.621812	<s> kuvamia
-2.059563	<s> kuwa	-0.01957741
-3.621812	<s> kuwaletea
-3.621812	<s> kuwapigia
-3.621812	<s> kuweka
-3.621812	<s> kuweza
-3.621812	<s> kuyafanyia
-3.621812	<s> kuzifanya
-1.378322	<s> kwa	0.007450663
-3.621812	<s> kwamba
-2.450768	<s> kwani
-2.450768	<s> kwenda	-0.003178944
-3.621812	<s> kwenye
-2.663963	<s> la	-0.06242667
-3.105627	<s> labda
-1.78081	<s> lakini	-0.01719166
-3.621812	<s> langalanga
-2.802927	<s> lazima
-3.621812	<s> leo
-3.621812	<s> licha
-3.621812	<s> limekabiliana
-3.621812	<s> limekanusha
-3.621812	<s> limelaani
-3.621812	<s> linalo
-3.105627	<s> linalochangia	0.1108158
-3.621812	<s> linaloshughulikia
-3.621812	<s> linasaidia
-3.621812	<s> lisiwe
-3.621812	<s> maafisa
-3.621812	<s> maandalizi
-3.621812	<s> mabadiliko
-3.621812	<s> mafanikio
-3.105627	<s> mafuta
-3.621812	<s> magonjwa
-3.105627	<s> mahakama	0.006916628
-3.621812	<s> makala
-3.621812	<s> mamadou
-3.621812	<s> mambo
-3.105627	<s> manake
-3.621812	<s> manchester
-3.621812	<s> maofisa
-3.105627	<s> mapema
-3.105627	<s> mara	0.2194057
-3.105627	<s> marekani
-3.621812	<s> mashariki
-3.621812	<s> mashindano
-3.105627	<s> mashirika	0.1108158
-3.621812	<s> maswada
-3.621812	<s> maswali
-3.621812	<s> matayarisho
-3.621812	<s> matokeo
-3.621812	<s> mbali
-3.621812	<s> mbili
-3.621812	<s> mboga
-3.621812	<s> mchambuzi
-3.621812	<s> mchezo
-3.621812	<s> meli
-3.621812	<s> mengi
-3.621812	<s> mfisadi
-3.621812	<s> mgogoro
-3.105627	<s> mgombea	-0.1028476
-3.621812	<s> mhoroni
-3.105627	<s> miaka
-3.621812	<s> mikunjo
-2.214465	<s> mimi	-0.1124814
-3.621812	<s> miongoni
-3.621812	<s> mkasa
-3.621812	<s> mkubwa
-3.621812	<s> mkupa
-3.105627	<s> mkurugenzi	0.1501317
-2.802927	<s> mkutano
-3.105627	<s> mlipuko
-3.621812	<s> mlo
-3.621812	<s> moja
-3.621812	<s> mpaka
-3.105627	<s> mpiga	0.1108158
-3.621812	<s> mradi
-3.621812	<s> msemaji
-3.621812	<s> msikilizaji
-3.621812	<s> mtoto
-3.105627	<s> mtu
-3.621812	<s> mubarak
-3.621812	<s> musuada
-3.105627	<s> muswada
-3.621812	<s> muuuu
-3.621812	<s> mwaka
-3.621812	<s> mwanasiasa
-3.105627	<s> mwandishi	0.8056714
-3.621812	<s> mwangalizi
-3.621812	<s> mwaona
-3.621812	<s> mwenyezi
-3.621812	<s> mwezangu
-3.105627	<s> mwili
-1.167469	<s> na	-0.01893119
-2.059563	<s> naam	0.007910063
-3.621812	<s> naelezwa
-3.621812	<s> nafasi
-3.105627	<s> nafurahi
-3.105627	<s> nahitaji	0.1108158
-3.621812	<s> naitwa
-3.621812	<s> nakiweze
-3.621812	<s> nakuaga
-3.621812	<s> nakutakia
-3.105627	<s> nashawishika	0.1108158
-3.621812	<s> nashukuru
-3.621812	<s> natarajia
-3.621812	<s> natumeweza
-3.621812	<s> nawapata
-3.621812	<s> nchi
-2.802927	<s> nchini
-3.621812	<s> ndani
-2.450768	<s> ndio
-3.621812	<s> ndipo
-3.621812	<s> ndiyo
-3.621812	<s> ndizo
-1.47978	<s> ni	-0.01283379
-3.621812	<s> nikiangalia
-3.621812	<s> nikikutangazia
-3.621812	<s> nilikuwa
-3.621812	<s> nilimpigia
-3.621812	<s> nilishagaa
-3.621812	<s> nimeona
-3.621812	<s> nimewaomba
-3.621812	<s> nimeweza
-3.621812	<s> nina
-3.621812	<s> ninaongea
-3.105627	<s> ninapenda
-3.621812	<s> ninaridhishwa
-3.105627	<s> ninyi	0.1108158
-3.621812	<s> nne
-3.105627	<s> nurdin
-3.105627	<s> obama
-3.621812	<s> ofisi
-3.621812	<s> ongeza
-3.621812	<s> outara
-3.621812	<s> pakistan
-3.621812	<s> pamoja
-3.621812	<s> pata
-3.621812	<s> pendo
-3.621812	<s> pia
-3.621812	<s> picha
-3.621812	<s> piki
-3.621812	<s> pikipiki
-3.621812	<s> pili
-3.621812	<s> pimples
-3.105627	<s> raia
-1.913435	<s> rais	0.09731875
-3.621812	<s> ramadhan
-3.621812	<s> rasmi
-3.105627	<s> rfi
-3.621812	<s> robert
-3.105627	<s> saba
-3.621812	<s> sababu
-3.621812	<s> safu
-3.621812	<s> salum
-3.621812	<s> sana
-3.621812	<s> sarekozy
-2.156473	<s> sasa	0.07804486
-3.621812	<s> serikali
-3.621812	<s> shambulizi
-3.621812	<s> shangwe
-3.621812	<s> sherehe
-2.802927	<s> sheria	-0.120573
-3.105627	<s> shirika
-3.105627	<s> shukran
-3.621812	<s> shukrani
-3.621812	<s> si
-3.621812	<s> siasa
-3.105627	<s> sifuri	0.2514226
-2.802927	<s> sikiliza	0.09908959
-2.802927	<s> siku
-3.621812	<s> sinachawa
-3.621812	<s> sionza
-3.105627	<s> sisi
-3.621812	<s> siwezi
-3.621812	<s> sukumwa
-3.621812	<s> sura
-3.621812	<s> swadakta
-3.105627	<s> swala
-3.621812	<s> swali
-3.105627	<s> tangu
-3.105627	<s> tanzania
-3.105627	<s> tarehe
-2.523051	<s> tayari	-0.05478962
-3.621812	<s> tuka
-3.621812	<s> tukihama
-3.621812	<s> tukio
-3.621812	<s> tukiondoka
-3.621812	<s> tulimfahamisha
-2.450768	<s> tume	0.2770287
-3.621812	<s> tumekwandalia
-3.621812	<s> tumesema
-3.105627	<s> tuna
-3.621812	<s> tunaanza
-3.621812	<s> tunaanze
-3.621812	<s> tunahakika
-3.105627	<s> tunahitaji	0.1108158
-3.621812	<s> tunaona
-3.621812	<s> tunashauriwa
-3.621812	<s> tunawaangalizi
-3.621812	<s> tunaweka
-3.621812	<s> tusipotia
-3.621812	<s> tuwezi
-3.621812	<s> uchaguzi
-3.621812	<s> ucheleweshaji
-3.621812	<s> ufahamishwe
-3.621812	<s> ujambazi
-3.621812	<s> ukaamua
-3.105627	<s> ukiangalia
-3.621812	<s> ukifahamu
-3.621812	<s> ukimaliza
-3.621812	<s> ukiuganisha
-3.621812	<s> ukiwa
-3.621812	<s> uko
-2.663963	<s> ule	-0.02223959
-3.621812	<s> uliadaliwa
-3.621812	<s> ulikuwa
-3.105627	<s> uliofanyika
-3.105627	<s> ulipelekwa	0.1108158
-3.105627	<s> umeleta	0.1108158
-3.621812	<s> umepangwa
-3.621812	<s> umoja
-3.621812	<s> unaiambiaje
-3.621812	<s> unaona
-3.621812	<s> unapokuwa
-3.621812	<s> unapomwambia
-3.621812	<s> unapongeza
-3.621812	<s> unatarajiwa
-3.621812	<s> ungependa
-3.621812	<s> uongozi
-3.621812	<s> upande
-3.621812	<s> urafiki
-3.621812	<s> utakao
-3.621812	<s> utakuta
-3.621812	<s> utapita
-3.621812	<s> utaratibu
-3.621812	<s> uungwaji
-3.621812	<s> victor
-3.621812	<s> vijana
-2.802927	<s> vile	-0.03750218
-3.621812	<s> vipo
-3.621812	<s> vitambulisho
-3.621812	<s> vitendo
-2.802927	<s> vizazi	0.2766435
-3.105627	<s> vya
-3.105627	<s> vyama	0.1244302
-3.621812	<s> vyeo
-3.621812	<s> vyombo
-2.214465	<s> wa	-0.03617166
-3.621812	<s> waandishi
-3.105627	<s> wagombea
-3.621812	<s> wakaona
-3.621812	<s> wakasahau
-2.523051	<s> wakati
-3.621812	<s> wakiasiri
-3.621812	<s> wakili
-3.621812	<s> wakipatiwa
-3.621812	<s> wakipiga
-2.663963	<s> wakiwa	0.002563974
-3.621812	<s> wakiwemo
-3.621812	<s> wakristo
-3.621812	<s> waliandamana
-3.621812	<s> walichuana
-3.621812	<s> walifanya
-3.621812	<s> waliiteka
-3.621812	<s> walikamatwa
-3.105627	<s> walikuwa
-3.621812	<s> waliokuwa
-3.105627	<s> walipata
-3.621812	<s> walipoteza
-3.621812	<s> wamekamatwa
-3.621812	<s> wamelazwa
-3.621812	<s> wamepiga
-3.621812	<s> wamesema
-3.621812	<s> wametiwa
-3.621812	<s> wanaelewa
-3.621812	<s> wanahabari
-3.621812	<s> wananchi
-3.621812	<s> wanapokuwa
-3.621812	<s> wanasinikiza
-3.621812	<s> wanatarajiwa
-3.621812	<s> wanzao
-3.621812	<s> wao
-3.621812	<s> wasomi
-3.621812	<s> wataadhibiwa
-3.621812	<s> watakambiliana
-3.621812	<s> watakapofanya
-3.621812	<s> watanzania
-3.105627	<s> watategua
-3.621812	<s> wataumana
-3.621812	<s> watawajibika
-3.621812	<s> watawapa
-2.059563	<s> watu
-2.802927	<s> waziri	0.5373033
-3.621812	<s> wengi
-3.621812	<s> wewe
-3.621812	<s> wizara
-3.621812	<s> www.rfikiswahili
-1.913435	<s> ya	-0.0723112
-3.621812	<s> yaani
-3.621812	<s> yaliahidiwa
-3.621812	<s> yaliingia
-3.621812	<s> yaliojiri
-3.621812	<s> yameanza
-3.621812	<s> yamefutilia
-3.621812	<s> yanayo
-3.621812	<s> yani
-3.621812	<s> yatasaidia
-3.105627	<s> yule
-2.802927	<s> za
-2.802927	<s> zaidi	0.1015747
-2.802927	<s> ziara	0.06846214
-3.621812	<s> zilizinduliwa
-3.621812	<s> zinaita
-3.621812	<s> zinapata
-3.621812	<s> zinashindwa
-3.621812	<s> zinaweza
-3.621812	<s> zinazoletwa
-3.621812	<s> zitakazofuatiwa
-0.5622489	a </s>
-1.603642	aa </s>
-1.603642	aa anaelekea
-1.603642	aa bwana
-1.603642	aa imekuwa
-1.603642	aa inategemewa
-1.603642	aa kuja
-1.603642	aa mahitaji
-1.603642	aa na
-1.603642	aa salama
-1.603642	aa sikupiga
-1.603642	aa unajua
-0.8632789	aaa kwa
-0.8632789	aaa na
-0.5622489	aah kusema
-0.5622489	aangalie mtoto
-0.5622489	abda </s>
-0.220485	abdala na	-0.09239301
-0.5622489	abi shaban
-0.5622489	abidjan raia
-0.3470938	abiria ishirini
-0.8632789	abraham mtegnwa
-0.8632789	abraham mutegwa
-0.3470938	abu dhabi
-0.8632789	abuso akiripoti
-0.8632789	abuso kutufahamisha
-0.5622489	achukue hatua
-0.5622489	achukuliwe hatua
-0.7450338	afisa lishe	0.2514226
-1.261219	afisa mmoja
-0.7450338	afisa wa	-0.1458491
-1.676192	afrika </s>
-1.676192	afrika kuanza
-1.676192	afrika kujua
-1.676192	afrika lazima
-1.676192	afrika limeshuhudia
-0.7183431	afrika mashariki	-0.01617024
-1.676192	afrika mfano
-0.8573071	afrika ya	-0.1598685
-0.7433637	afya </s>
-1.562249	afya imethibitisha
-1.046064	afya la	-0.0966533
-1.046064	afya nchini	-0.1357351
-1.046064	afya njema
-0.3470938	agenda mbalimbali	-0.1249652
-0.5622489	aina ngani
-0.5622489	ajabu hivi
-0.2064597	ajili ya
-0.5622489	akachukua malalamiko
-0.5622489	akachukuwa nafasi
-0.3470938	akafanya mabandiliko	0.1108158
-0.5622489	akajitetea kwamba
-0.5622489	akaniambia ni
-0.8632789	akielezea ni
-0.8632789	akielezea pengine
-0.5622489	akifwatilia taarifa
-0.5622489	akifwatiwa na
-0.5622489	akikabiliwa na
-0.5622489	akikutana na
-0.5622489	akimaliza anaondoka
-0.5622489	akiorodheshwa katika
-0.5622489	akiripoti moja
-0.5622489	akisha zugumza
-0.5622489	akishinda katika
-0.3470938	akitarajiwa kuchuana	0.1108158
-1.603642	akiwa katika
-1.603642	akiwa kwenye
-1.603642	akiwa meya
-0.7847564	akiwa na	-0.1600333
-1.603642	akiwa nairobi
-1.603642	akiwa nchini
-1.603642	akiwa ni
-1.603642	akiwa pale
-1.603642	akiwa ziarani
-0.5622489	akiwemo rais
-0.5622489	akizuiliwa kwa
-0.5622489	akizungumza na
-0.5622489	akujuze mengi
-0.5622489	akuwe mshindi
-0.2064597	alama ya	-0.2841272
-0.3470938	alasan watera	0.2735259
-0.5622489	alasane watara
-0.5622489	alaumiwe </s>
-0.5622489	albino </s>
-0.8632789	ale </s>
-0.8632789	ale matunda
-0.5622489	alex ferguson
-0.5622489	alexander niyubiko
-0.5622489	alfa </s>
-0.3470938	alfan baruan
-0.5622489	alhasa draman
-0.5622489	alhasan draman
-0.5622489	ali zurfikar
-0.5622489	alichanguliwa kuwa
-0.5622489	aliejiuzulu na
-0.5622489	aliekamatwa nyumbani
-0.5622489	alihusika na
-0.5622489	alikamatwa kimakosa
-0.8632789	alikuwa akiorodheshwa
-0.8632789	alikuwa ni
-0.5622489	alimuuliza julian
-0.5622489	alinyimwa ruhusa
-0.5622489	alioifanya </s>
-0.5622489	aliona ni
-0.5622489	alipata madawa
-0.5622489	alipochukua uongozi
-0.5622489	alipotamuka kuwa
-0.5622489	alisema </s>
-0.5622489	alishashinda waccm
-0.5622489	alitaka kufahamu
-0.3470938	alitia sahihi	0.006199665
-0.5622489	alitutumia taarifa
-0.5622489	alivyo chaguliwa
-0.5622489	alivyosema kwamba
-0.5622489	aliyegombea kiti
-0.220485	aliyeko madarakani	-0.006178982
-0.5622489	aliyetangulia henry
-0.3470938	aliyeteuliwa na
-0.5622489	aliyoahidi wakati
-0.5622489	aliyoiacha ikulu
-1.03937	alonzo </s>
-1.03937	alonzo ambae
-1.03937	alonzo kwa
-0.5622489	alqaeda </s>
-1.562249	ama amani
-1.562249	ama arafa
-1.562249	ama kulingana
-1.562249	ama kwa
-1.562249	ama mataifa
-1.562249	ama raia
-1.562249	ama tangazo
-1.562249	ama tukitoka
-1.562249	ama tuseme
-1.562249	ama wavuti
-0.5622489	amalize kabisa
-0.5166298	amani </s>
-1.923977	amani katika
-1.923977	amani kumbe
-1.105092	amani kwa
-1.407792	amani ni
-1.923977	amani pia
-1.923977	amani tanzania
-1.923977	amani tutaendelea
